tree
version=v4
num_class=1
num_tree_per_iteration=1
label_index=0
max_feature_idx=12
objective=binary sigmoid:1
feature_names=Column_0 Column_1 Column_2 Column_3 Column_4 Column_5 Column_6 Column_7 Column_8 Column_9 Column_10 Column_11 Column_12
feature_infos=[-1.5090155911673901:2.4049929096573353] [-1.463828890184836:2.3868277683880073] [-1.5087299616153647:2.4022263345708086] [-1.4638685190065484:2.386622443695436] [-4.9951536830204333:4.9745908092774975] [-2.8639192407054037:2.3947720146539311] [-1.3859854411188104:2.0667875089032441] [-1.3858273442188027:2.0684045627764021] [-2.8233888903939341:7.2470333430103135] [-1.0688960424484817:2.4059260384040724] [-0.58480891167818805:3.0929879677453305] [-0.32913807280133367:4.6777396265216842] [-1.922251278466615:1.5642756798875332]
tree_sizes=3475 3497 3511 3497 3502 3523 3493 3527 3526 3537 3523 3515 3516 3509 3544 3510 3506 3565 3498 3499 3488 3519 3522 3524 3498 3526 3516 3518 3520 3535 3497 3519 3513 3519 3520 3519 3545 3534 3534 3519 3504 3542 3519 3533 3526 3499 3525 3504 3532 3538 3491 3498 3522 3526 3509 3549 3528 3529 3515 3524 3531 3543 3513 3553 3533 3533 3539 3543 3508 3539 3515 3515 3517 3556 3509 3542 3516 3549 3548 3513 3533 3546 3544 3532 3520 3527 3517 3537 3485 3527 3530 3581 3536 3521 3522 3503 3523 3522 3515 3487

Tree=0
num_leaves=31
num_cat=0
split_feature=5 12 12 5 3 5 5 9 10 10 5 8 5 5 5 5 5 5 4 8 3 10 10 5 5 12 5 5 5 3
split_gain=28973 25961.6 70688.6 3167.41 10336.1 4370.52 3583.4 2565.74 2298.8 1758.86 1694.15 1752.4 1125.96 7190.76 1097.71 9350.62 1083.86 1857.15 1063.25 969.313 922.265 879.717 954.359 724.214 8205.93 2813.33 2272.28 696.911 965.49 677.77
threshold=1.4083721184106015 -0.23285248701017633 -0.22880605558706832 -0.33645260021371254 0.53645959317121628 -0.25265915908003883 -0.15365451022594531 1.0000000180025095e-35 1.528775236739756 1.6278113333119084 -0.60659259954554179 1.2881884450443788 -0.43924377184317526 -0.4656987691032573 -0.22410417135585778 -0.16808236265337373 -0.67399897942448272 -0.70948141993565295 -1.5229902738188548 1.8863838133181885 0.78790411347421274 1.6399767619173344 1.7006713658702035 1.0000000180025095e-35 -0.030937199699679809 1.0000000180025095e-35 0.16083899910446692 -0.63808836394948154 -0.6251403454047233 1.0939262419352123
decision_type=2 2 2 2 2 2 2 2 2 2 2 2 2 2 2 2 2 2 2 2 2 2 2 2 2 2 2 2 2 2
left_child=1 -1 3 12 6 -6 -5 8 18 -10 11 20 13 16 -12 -16 17 -3 -2 23 27 -11 -23 24 -17 26 -25 -4 -29 -20
right_child=7 2 10 4 5 -7 -8 -9 9 21 14 -13 -14 -15 15 19 -18 -19 29 -21 -22 22 -24 25 -26 -27 -28 28 -30 -31
leaf_value=-0.76748386270297209 -0.71951330102714994 -0.58736160341529031 -0.71345405855133504 -0.76050114646893929 -0.74224176219251581 -0.55947645780778565 -0.60027004082613256 -0.56124013775672599 -0.77280592685533955 -0.54744615274145236 -0.77280592685533955 -0.75558451437169827 -0.54744615274145236 -0.77280592685533955 -0.54797289938916693 -0.77280592685533955 -0.55657482633728383 -0.71853350419029793 -0.60987261539109916 -0.54744615274145236 -0.60645202419713895 -0.77280592685533955 -0.64455046946462535 -0.77280592685533955 -0.54744615274145236 -0.77280592685533955 -0.54744615274145236 -0.54744615274145236 -0.73211596764033215 -0.56005027624489545
leaf_weight=14674.757343024015 176.38462834060192 3845.6286327391863 1917.3785636723042 1535.988405033946 368.0781112164259 2938.4126009345055 451.50027506053448 2298.1031199395657 342.34148620069027 193.4684225320816 5394.2634828239679 1890.0888664573431 1610.9796055108309 520.50105419754982 569.53376220166683 2473.3784109950066 2870.0774241685867 290.20263379812241 2049.6115680634975 55.466864258050919 281.32793551683426 168.17553243041039 1054.5360232740641 196.79643438756466 482.7835865020752 7174.0842231363058 259.14118981361389 158.63523177802563 127.79565525054932 1023.4745792895555
leaf_count=66142 795 17333 8642 6923 1659 13244 2035 10358 1543 872 24313 8519 7261 2346 2567 11148 12936 1308 9238 250 1268 758 4753 887 2176 32335 1168 715 576 4613
internal_value=-0.697996 -0.711564 -0.688391 -0.603214 -0.633988 -0.579822 -0.724101 -0.60498 -0.625052 -0.671101 -0.74698 -0.7193 -0.585384 -0.593504 -0.754273 -0.745356 -0.580183 -0.596566 -0.600132 -0.755919 -0.691704 -0.646515 -0.662191 -0.757012 -0.736001 -0.765152 -0.644718 -0.702587 -0.62984 -0.59328
internal_weight=57392.9 50086.8 35412 14431.4 5293.98 3306.49 1987.49 7306.1 5007.99 1758.52 20980.7 4375.23 9137.39 7526.41 16605.4 11211.2 7005.91 4135.83 3249.47 10641.7 2485.14 1416.18 1222.71 10586.2 2956.16 7630.02 455.938 2203.81 286.431 3073.09
internal_count=258681 225751 159609 65045 23861 14903 8958 32930 22572 7926 94564 19720 41184 33923 74844 50531 31577 18641 14646 47964 11201 6383 5511 47714 13324 34390 2055 9933 1291 13851
is_linear=0
shrinkage=1


Tree=1
num_leaves=31
num_cat=0
split_feature=5 12 12 5 1 5 5 9 10 5 8 10 5 5 4 5 5 5 5 8 1 10 10 5 5 12 5 5 5 4
split_gain=25511.6 24019 62740.1 2622.59 8881.46 3691 3228.58 2106.56 1947.14 1603.3 1622.31 1587.99 1050.78 8337.11 908.742 907.778 6199.75 876.04 1635.59 867.417 807.378 736.899 858.578 690.011 7333.64 2616.57 1972.05 618.595 822.525 663.893
threshold=1.4083721184106015 -0.23285248701017633 -0.22880605558706832 -0.33645260021371254 0.53658530091422996 -0.25265915908003883 -0.15365451022594531 1.0000000180025095e-35 1.528775236739756 -0.60659259954554179 1.2881884450443788 1.6278113333119084 -0.22410417135585778 -0.16808236265337373 -1.6584348566595375 -0.43924377184317526 -0.4656987691032573 -0.67399897942448272 -0.68947571669541208 1.8863838133181885 0.77857859373790383 1.6399767619173344 1.7006713658702035 1.0000000180025095e-35 -0.030937199699679809 1.0000000180025095e-35 0.16083899910446692 -0.63808836394948154 -0.6251403454047233 -0.84864957449995548
decision_type=2 2 2 2 2 2 2 2 2 2 2 2 2 2 2 2 2 2 2 2 2 2 2 2 2 2 2 2 2 2
left_child=1 -1 3 15 6 -6 -5 8 14 10 20 -10 -11 -14 -2 16 17 18 -3 23 27 -13 -23 24 -15 26 -25 29 -29 -4
right_child=7 2 9 4 5 -7 -8 -9 11 12 -12 21 13 19 -16 -17 -18 -19 -20 -21 -22 22 -24 25 -26 -27 -28 28 -30 -31
leaf_value=-0.067755460756580385 -0.037696952848285767 0.098933063093545257 0.044302580341405662 -0.060794955591414616 -0.042766888349794772 0.12595377563546589 0.089899645236555636 0.12441092308898433 -0.073085783111560887 -0.073085783111560887 -0.055916173044218913 0.13644161128678392 0.13598369914273145 -0.073085783111560887 0.095344778698891242 0.13644161128678392 -0.073085783111560887 0.12848912657041139 -0.07437332713979676 0.13644161128678392 0.084365497392822453 -0.073085783111560887 0.0498147072471187 -0.073085783111560887 0.13644161128678392 -0.073085783111560887 0.13644161128678392 0.13644161128678392 -0.032874545120317893 -0.029547794322537752
leaf_weight=14321.042941451073 133.68799364566803 4127.3913563489914 380.05039635300636 1502.784986436367 362.4894534945488 3064.8437293767929 465.53928360342979 2395.8294404745102 333.43773575127125 5253.9673812836409 1852.5237692594528 202.44901812076569 595.88702034950256 2409.049823820591 3216.1424687951803 1685.7595419436693 506.9636604487896 2995.9317415952682 140.7833476960659 58.04157629609108 289.5509158372879 163.80155780911446 1072.9049688130617 191.67807622253895 505.19388008117676 6987.4978519231081 271.17024445533752 165.99890820682049 126.30564308166504 1527.2640782594681
leaf_count=66142 607 18002 1722 6923 1659 13244 2035 10358 1543 24313 8519 872 2567 11148 14039 7261 2346 12936 639 250 1268 758 4753 887 2176 32335 1168 715 576 6920
internal_value=-0.000139167 -0.0131031 0.00896492 0.0873107 0.0594953 0.108109 -0.0251533 0.0857111 0.0676107 -0.0474831 -0.0204876 0.025233 -0.0546859 -0.0459122 0.0900352 0.103181 0.0959659 0.107764 0.0932166 -0.0563116 0.00587945 0.0480124 0.0335366 -0.057391 -0.0367635 -0.0654596 0.0496706 -0.0044522 0.0632796 -0.0148324
internal_weight=57306 49787.7 35466.7 14852.5 5395.66 3427.33 1968.32 7518.25 5122.42 20614.2 4341.69 1772.59 16272.5 11018.5 3349.83 9456.83 7771.07 7264.11 4268.17 10422.6 2489.17 1439.16 1236.71 10364.6 2914.24 7450.35 462.848 2199.62 292.305 1907.31
internal_count=258681 225751 159609 65045 23861 14903 8958 32930 22572 94564 19720 7926 74844 50531 14646 41184 33923 31577 18641 47964 11201 6383 5511 47714 13324 34390 2055 9933 1291 8642
is_linear=0
shrinkage=0.05


Tree=2
num_leaves=31
num_cat=0
split_feature=5 12 12 5 1 5 5 9 1 5 4 5 5 5 5 1 1 1 8 5 5 5 5 1 1 5 5 12 5 5
split_gain=22622.7 22259.6 56096.2 2208.42 7730.39 3171.01 2964.98 1776.94 1664.4 1524.35 1539.57 1279.55 1003.75 7503.48 989.686 986.433 959.239 1269.84 783.242 759.43 5409.03 736.588 1430.35 718.086 699.838 656.398 6614.66 2438.97 1734.83 575.29
threshold=1.4083721184106015 -0.23285248701017633 -0.22880605558706832 -0.33645260021371254 0.53658530091422996 -0.25265915908003883 -0.054774243884887545 1.0000000180025095e-35 1.0553624130690393 -0.60659259954554179 0.63337464907065766 -0.94401635337949241 -0.22410417135585778 -0.16808236265337373 -0.87880536591210834 0.37285367810971787 0.36710571031254829 1.0000000180025095e-35 1.8863838133181885 -0.43924377184317526 -0.4656987691032573 -0.67399897942448272 -0.68947571669541208 0.48590761328754906 0.49103162010717455 1.0000000180025095e-35 -0.030937199699679809 1.0000000180025095e-35 0.16083899910446692 -0.63808836394948154
decision_type=2 2 2 2 2 2 2 2 2 2 2 2 2 2 2 2 2 2 2 2 2 2 2 2 2 2 2 2 2 2
left_child=1 -1 3 19 6 -6 -5 8 15 10 11 -4 -11 -14 -13 16 17 -2 25 20 21 22 -3 -17 -25 26 -15 28 -27 -16
right_child=7 2 9 4 5 -7 -8 -9 -10 12 -12 14 13 18 29 23 -18 -19 -20 -21 -22 -23 -24 24 -26 27 -28 -29 -30 -31
leaf_value=-0.066092598398022354 0.064946604547486866 0.091491193225344492 -0.040076236658260371 -0.04839736071677378 -0.041283130655623397 0.11594803638336176 0.13329541107874426 0.11455450580319704 0.10928089687433339 -0.071458728819617401 -0.064006979680345119 0.12011320042873296 0.12500331989367849 -0.071458728819617401 -0.0027955547419816328 -0.075727717057089416 0.13541175501409364 -0.074907573981767936 0.1254166118904102 0.1254166118904102 -0.071458728819617401 0.11823759549367691 -0.072626374009627181 0.13564234893589647 0.01565711687109576 -0.071458728819617401 0.1254166118904102 -0.071458728819617401 0.1254166118904102 0.07434918083582559
leaf_weight=13956.551084756851 1666.9926745742559 4236.9229782223701 1172.6134679913521 1686.8139900118113 356.88611148297787 3160.1774746775627 259.01383228600025 2469.7930788397789 1418.2250857800245 5108.6002795696259 1345.2572817951441 246.72895948588848 615.27035962045193 2342.3960809707642 1239.3734353631735 191.60119886696339 415.52249926328659 179.81444638967514 59.933122247457504 1740.6976025551558 492.93695783615112 3090.2470135688782 137.05569890141487 135.15842473506927 1205.2200379669666 186.37471508979797 521.65789604187012 6794.1673195362091 280.00754714012146 300.20135360956192
leaf_count=66142 7289 18002 5411 7853 1659 13244 1105 10358 6009 24313 6290 1133 2567 11148 5592 861 1785 817 250 7261 2346 12936 639 581 5230 887 2176 32335 1168 1294
internal_value=-0.000191661 -0.012621 0.00847617 0.0811787 0.0557527 0.0999934 -0.0242118 0.0796201 0.0630675 -0.0460554 -0.0196575 0.000505745 -0.0531976 -0.0445597 0.0271457 0.045794 0.0667731 0.0513297 -0.0548033 0.0955013 0.0889571 0.0995509 0.0863487 0.0148135 0.0277559 -0.0558702 -0.0355999 -0.0638661 0.0467417 0.0122469
internal_weight=57012.2 49329.9 35373.3 15160.8 5462.89 3517.06 1945.83 7682.33 5212.53 20212.6 4304.17 2958.92 15908.4 10799.8 1786.3 3794.31 2262.33 1846.81 10184.5 9697.86 7957.16 7464.23 4373.98 1531.98 1340.38 10124.6 2864.05 7260.55 466.382 1539.57
internal_count=258681 225751 159609 65045 23861 14903 8958 32930 22572 94564 19720 13430 74844 50531 8019 16563 9891 8106 47964 41184 33923 31577 18641 6672 5811 47714 13324 34390 2055 6886
is_linear=0
shrinkage=0.05


Tree=3
num_leaves=31
num_cat=0
split_feature=5 12 12 5 1 5 5 10 10 5 8 4 5 5 10 10 1 3 8 11 1 5 5 5 5 5 5 12 5 0
split_gain=20161.4 20659.8 50448.4 1887.54 6799.15 2760.96 2740.28 1482.81 2245.81 1457.8 1462.69 964.299 957.309 6802.16 794.284 1232.5 731.702 1207.25 712.126 698.91 678.711 654.023 4763.96 638.706 1278.25 623.71 6008.43 2277.57 1542.26 622.133
threshold=1.4083721184106015 -0.23285248701017633 -0.22880605558706832 -0.33645260021371254 0.53658530091422996 -0.25265915908003883 -0.15365451022594531 1.528775236739756 1.6278113333119084 -0.60659259954554179 1.3749708791652633 -1.9525660452375486 -0.22410417135585778 -0.16808236265337373 1.6399767619173344 1.7006713658702035 0.37285367810971787 1.0424078941354937 1.8863838133181885 2.8394302923332067 0.77857859373790383 -0.43924377184317526 -0.4656987691032573 -0.67399897942448272 -0.70948141993565295 1.0000000180025095e-35 -0.030937199699679809 1.0000000180025095e-35 0.16083899910446692 1.0000000180025095e-35
decision_type=2 2 2 2 2 2 2 2 2 2 2 2 2 2 2 2 2 2 2 2 2 2 2 2 2 2 2 2 2 2
left_child=1 -1 3 21 6 -6 -5 11 -9 10 20 -2 -11 -14 -10 -16 -13 19 25 29 -4 22 23 24 -3 26 -15 28 -27 -18
right_child=7 2 9 4 5 -7 -8 8 14 12 -12 16 13 18 15 -17 17 -19 -20 -21 -22 -23 -24 -25 -26 27 -28 -29 -30 -31
leaf_value=-0.064552252528225537 -0.074954101362848413 0.087525623678966422 -0.0074641122481684252 -0.057835498684011125 -0.039859276017378764 0.10774160099086859 0.079898532172655301 -0.072953768977702949 0.11935197092683097 -0.069978819479066576 -0.062261298447043513 0.11233735459638115 0.11614310342918446 -0.069978819479066576 -0.074036515433973202 0.060947383420154461 0.012588435834742024 0.10194818600008189 0.1165271996050542 -0.016590911449707049 0.070189927521793677 0.1165271996050542 -0.069978819479066576 0.1098634770965238 -0.021159060214436295 -0.069978819479066576 0.1165271996050542 -0.069978819479066576 0.1165271996050542 0.1160156448562812
leaf_weight=13584.560839533806 86.992210045456886 4166.9482720941305 2617.9223439991474 1440.7130666524172 351.2970087826252 3228.9017954468727 481.91476747393608 354.83863243460655 480.47093074023724 4959.5827243477106 1334.3490360826254 2475.790347546339 628.71553181111813 2274.068531692028 188.30395437777042 1658.7879417985678 274.24811233580112 1552.3460697233677 61.242744326591492 429.86144006252289 315.26807357370853 1778.7342662215233 478.55801716446877 3157.6046007871628 289.31540465354919 180.93817614018917 533.05684661865234 6595.981877669692 286.12610149383545 309.46185305714607
leaf_count=66142 394 17333 11971 6923 1659 13244 2035 1664 1974 24313 6396 10261 2567 11148 873 7034 1165 6438 250 1833 1353 7261 2346 12936 1308 887 2176 32335 1168 1294
internal_value=-0.000233162 -0.0121834 0.00804938 0.0759949 0.0525302 0.0932587 -0.0233119 0.074343 0.04422 -0.0447419 -0.018861 0.0900979 -0.0518585 -0.0433482 0.0620832 0.0471863 0.0929458 0.0742354 -0.053445 0.0317915 0.000882376 0.0890757 0.0830418 0.0926597 0.0804695 -0.0544996 -0.0345624 -0.0624234 0.0442758 0.0674218
internal_weight=56556.9 48745.8 35161.2 15374 5502.83 3580.2 1922.63 7811.1 2682.4 19787.3 4267.54 5128.7 15519.7 10560.1 2327.56 1847.09 5041.71 2565.92 9931.41 1013.57 2933.19 9871.16 8092.43 7613.87 4456.26 9870.17 2807.13 7063.05 467.064 583.71
internal_count=258681 225751 159609 65045 23861 14903 8958 32930 11545 94564 19720 21385 74844 50531 9881 7907 20991 10730 47964 4292 13324 41184 33923 31577 18641 47714 13324 34390 2055 2459
is_linear=0
shrinkage=0.05


Tree=4
num_leaves=31
num_cat=0
split_feature=5 12 12 5 1 5 5 9 5 5 10 10 4 4 5 5 4 4 9 5 5 5 5 4 5 5 12 5 10 10
split_gain=18062.4 19200.3 45589.2 1629.92 6029.48 2492.67 2429.76 1410.62 1402.46 1770.82 1372.23 1238.94 1102.79 947.849 865.833 6201.85 754.015 688.248 582.998 576.694 4227.8 580.465 860.37 572.884 591.657 5488.33 2129.95 1382.57 538.876 663.76
threshold=1.4083721184106015 -0.23285248701017633 -0.22880605558706832 -0.33645260021371254 0.53658530091422996 -0.15365451022594531 -0.25265915908003883 1.0000000180025095e-35 -0.6251403454047233 -0.63808836394948154 1.528775236739756 1.6278113333119084 0.63337464907065766 0.57865194705261735 -0.22410417135585778 -0.16808236265337373 -0.84864957449995548 -1.9525660452375486 1.3306759160450521 -0.43924377184317526 -0.4656987691032573 -0.57726826192588065 -0.59463554612586911 3.7533305778057513 1.0000000180025095e-35 -0.030937199699679809 1.0000000180025095e-35 0.16083899910446692 1.6399767619173344 1.7006713658702035
decision_type=2 2 2 2 2 2 2 2 2 2 2 2 2 2 2 2 2 2 2 2 2 2 2 2 2 2 2 2 2 2
left_child=1 -1 3 19 5 -5 -6 10 9 12 17 -12 13 16 -10 -16 -4 -2 -18 20 21 22 -3 24 25 -17 27 -26 -13 -30
right_child=7 2 8 4 6 -7 -8 -9 14 -11 11 28 -14 -15 15 23 18 -19 -20 -21 -22 -23 -24 -25 26 -27 -28 -29 29 -31
leaf_value=-0.063119206081634044 -0.07243452819319314 0.081200312279071818 0.042664932421323409 -0.056334415334011095 -0.038490099183585709 0.074632317293620257 0.1008791133779104 0.10035727740201775 -0.067721200369234666 0.12102789956535705 -0.070223300052106807 0.11193540393507098 -0.064139118586845331 0.15197501340043668 0.10884432210659307 -0.068628519467477153 -0.031619827324036717 0.076644600200548293 0.10182158406657252 0.10920960348855394 -0.068628519467477153 0.11106920341919407 -0.090937168302541616 0.091364182721271878 -0.068628519467477153 0.10920960348855394 -0.068628519467477153 0.10920960348855394 -0.07034509258575751 0.039884115807240834
leaf_weight=13207.911698073149 79.19335862994194 5781.7903619259596 495.38373281061649 1406.0324894338846 345.74684169888496 489.90387827157974 3274.8200397491455 2555.6605728566647 4938.5856259167194 218.20114001631737 315.78690385818481 215.46059773862362 1245.2688926458359 90.48735511302948 637.08996121585369 2204.6316454410553 1966.4929744005203 3456.6915391683578 85.406191259622574 1802.3408681899309 463.94562613964081 1865.0401806086302 73.512532666325569 68.977141827344894 175.41337186098099 540.13134956359863 6387.6571714878082 289.92344498634338 155.53387254476547 1120.1380075067282
leaf_count=66142 371 23745 2215 6923 1659 2035 13244 10358 24909 900 1543 872 6088 410 2567 11148 9140 14275 371 7261 2346 7535 297 285 887 2176 32300 1168 758 4753
internal_value=-0.000266179 -0.0117834 0.00767425 0.0715563 0.0497431 -0.022493 0.08757 0.0698055 -0.0435246 -0.01757 0.0551915 0.0197445 -0.0253583 -0.00705014 -0.0505081 -0.042258 -0.0126992 0.0733057 -0.0260656 0.0836058 0.0779673 0.0867768 0.0790391 -0.0522164 -0.0532483 -0.0336324 -0.0611049 0.0421717 0.0387976 0.0264446
internal_weight=55953.2 48054.7 34846.8 15503.1 5516.5 1895.94 3620.57 7898.46 19343.6 4101.24 5342.8 1806.92 3883.04 2637.77 15242.4 10303.8 2547.28 3535.88 2051.9 9986.63 8184.29 7720.34 5855.3 9666.73 9597.76 2744.76 6852.99 465.337 1491.13 1275.67
internal_count=258681 225751 159609 65045 23861 8958 14903 32930 94564 19124 22572 7926 18224 12136 75440 50531 11726 14646 9511 41184 33923 31577 24042 47964 47679 13324 34355 2055 6383 5511
is_linear=0
shrinkage=0.05


Tree=5
num_leaves=31
num_cat=0
split_feature=5 12 12 5 1 5 5 5 8 9 1 5 5 1 1 1 9 1 8 4 5 5 12 5 5 5 5 1 12 5
split_gain=16318.8 17812.1 41273.3 1392.93 5423.08 2288.43 2122.01 1338.43 1297.46 1260.4 1231.77 871.51 5662.25 852.774 729.061 1020.02 681.008 619.029 604.118 600.508 578.332 5096.31 2007.19 1227.91 576.732 559.748 1481.37 553.79 543.503 3677.81
threshold=1.4083721184106015 -0.23285248701017633 -0.22880605558706832 -0.33645260021371254 0.53658530091422996 -0.15365451022594531 -0.25265915908003883 -0.60659259954554179 1.3749708791652633 1.0000000180025095e-35 1.0553624130690393 -0.22410417135585778 -0.16808236265337373 0.37285367810971787 0.36710571031254829 1.0000000180025095e-35 1.2594428006005762 0.48590761328754906 1.8863838133181885 -0.84864957449995548 1.0000000180025095e-35 -0.030937199699679809 1.0000000180025095e-35 0.16083899910446692 -0.63808836394948154 -0.068588321316248688 -0.054774243884887545 0.49103162010717455 -1.0791497900521834 0.019394866504950984
decision_type=2 2 2 2 2 2 2 2 2 2 2 2 2 2 2 2 2 2 2 2 2 2 2 2 2 2 2 2 2 2
left_child=1 28 3 -3 5 -5 -6 8 16 10 13 -9 -13 14 15 -2 19 -15 20 -4 21 -14 23 -22 -21 -8 -27 -19 29 -1
right_child=9 2 7 4 6 -7 25 11 -10 -11 -12 12 18 17 -16 -17 -18 27 -20 24 22 -23 -24 -25 -26 26 -28 -29 -30 -31
leaf_value=0.072601994719797808 0.054372322226857887 0.078646222950171346 0.045188457424140065 -0.055295879239934766 -0.037599133764564571 0.070563850404073036 0.10276186003555161 -0.067408745195979461 -0.059469922079207753 0.094747902836334108 0.090912909318568463 0.10280672895991055 -0.067392953848553178 -0.074883115542394296 0.11345691912894296 -0.073888392572195719 0.080224552192098245 0.11469560105461696 0.10403973371173372 -0.026854151454336363 -0.067392953848553178 0.10308392693083246 -0.067396457835826359 0.10308392693083246 0.052298402038939963 -0.094838584598653103 0.10575554397650244 0.0097215518833368344 -0.067868143099778164 -0.067868143099778164
leaf_weight=559.19358533620834 1713.3336345404387 10049.121932387352 465.77835431694984 1369.677472114563 332.46289691329002 490.50172305107117 2889.4164891242981 4653.3769723176956 1273.698403224349 2572.8318605870008 1485.4261431246996 638.88585615158081 2141.2763007581234 194.15688014030457 452.34549079835415 170.42956387996674 248.52215169370174 140.13129565119743 62.405768781900406 1918.0394394397736 165.81823092699051 551.2561708688736 6204.9004672318697 290.98932445049286 261.51331900060177 135.84644466638565 285.40216356515884 1214.7618124634027 9482.4335761070251 2795.1920771002769
leaf_count=2883 7244 41149 2044 6915 1621 2012 11592 24292 6412 10336 6007 2558 11183 899 1839 807 1058 571 250 8980 866 2207 32403 1165 1135 545 1145 5168 48888 14411
internal_value=-0.000337628 -0.0114816 0.00726066 0.0675728 0.0473524 -0.0221085 0.0828192 -0.0424308 -0.0174184 0.0659722 0.0521869 -0.0495178 -0.0412384 0.0373806 0.0564558 0.0427682 0.00109017 0.0086135 -0.0510113 -0.00634431 -0.0520457 -0.0324903 -0.0599496 0.0412019 -0.017357 0.0949118 0.0410669 0.0205786 -0.061749 -0.044451
internal_weight=55209.1 47265.7 34428.9 15552.4 5503.31 1860.18 3643.13 18876.5 4167.55 7943.42 5370.58 14708.9 10055.5 3885.16 2336.11 1883.76 2893.85 1549.05 9416.65 2645.33 9354.24 2692.53 6661.71 456.808 2179.55 3310.67 421.249 1354.89 12836.8 3354.39
internal_count=258585 225714 159532 64979 23830 8927 14903 94553 19629 32871 22535 74924 50632 16528 9890 8051 13217 6638 48074 12159 47824 13390 34434 2031 10115 13282 1690 5739 66182 17294
is_linear=0
shrinkage=0.05


Tree=6
num_leaves=31
num_cat=0
split_feature=12 12 8 8 4 4 8 10 10 1 8 4 9 3 8 1 4 8 4 4 11 12 10 10 9 3 8 1 6 10
split_gain=12579 25310.3 11998.9 10144.4 2974.57 2464.66 2268.5 1210.09 1329.61 1185.63 1551.51 1001.99 851.299 813.529 734.096 727.854 639.026 670.77 542.532 531.081 487.271 477.12 445.698 786.577 431.873 336.238 289.876 288.426 295.189 282.085
threshold=-0.23285248701017633 -0.22880605558706832 -1.0058707782594902 -1.0058707782594902 -0.96802883829102271 -1.5229902738188548 -1.7423424086313093 1.528775236739756 1.6278113333119084 0.48590761328754906 -0.57486346065374627 3.7533305778057513 1.3044450495905482 1.0424078941354937 0.37603826105482635 0.64667359743884922 -0.83115653285558033 -0.33109825452577374 -0.097002618766886359 -1.9525660452375486 2.8983700854983687 1.0000000180025095e-35 1.6399767619173344 1.7006713658702035 1.0754666136696793 0.98083550393665742 -1.2343016359361034 0.79359834924486916 0.67039957515178894 1.7056752044287149
decision_type=2 2 2 2 2 2 2 2 2 2 2 2 2 2 2 2 2 2 2 2 2 2 2 2 2 2 2 2 2 2
left_child=3 9 4 5 6 -1 -3 -6 -9 10 -2 12 16 15 18 26 17 -4 24 -11 -5 -8 -10 -24 -12 -17 -7 28 -21 -25
right_child=1 2 11 20 7 13 21 8 22 19 14 -13 -14 -15 -16 25 -18 -19 -20 27 -22 -23 23 29 -26 -27 -28 -29 -30 -31
leaf_value=-0.036460656866554808 -0.041503968651181465 0.058974398009639328 -0.032398194090159725 -0.06516940924572448 0.090606821057455281 0.10077865456523155 0.053610120319362402 -0.070877996436337479 0.10084494748121919 -0.079024904852704636 0.058768197769941348 0.10190208224759648 0.024133015672493725 0.082924177648367722 0.06798534651592332 -0.052716406890361105 -0.046740297393061958 0.032029778589664069 -0.0058567448610171626 0.062183731856499669 -0.033727726318637567 -0.053055860568031112 -0.072695830012879936 0.11108816422893789 -0.013127644976865017 0.023708114725484789 -0.017117408860887057 0.092906770623827559 0.082820907229210969 0.042325856149594179
leaf_weight=863.05042931437492 453.62367498874664 842.54018333554268 1985.5602937489748 10259.978156134486 2199.2478242367506 298.59813368320465 113.95182324945927 250.39123073220253 372.28683070838451 55.160925403237343 1360.7480389773846 124.02947764098644 491.45226937532425 1607.4897414147854 3748.2511267960072 257.94059552252293 14181.360936954618 507.17480359971523 668.79635678231716 3753.2748677134514 1400.4480566680431 1310.6919103562832 141.01198603212833 173.30734787881374 246.75283855199814 325.5806480050087 63.167538791894913 2085.0467033833265 3218.7706388235092 1069.9540803879499
leaf_count=4419 2184 3514 10122 54589 8862 1207 499 1241 1490 253 5798 521 2284 6556 15295 1111 73305 2239 3192 15516 7293 6857 685 703 1137 1398 290 8419 13185 4421
internal_value=-0.000359767 0.0145178 -0.0179615 -0.0391945 0.040104 0.036584 -0.00606154 0.0649876 0.0369138 0.0640227 0.0476695 -0.0397017 -0.0407249 0.0612792 0.0543839 0.0244711 -0.0426365 -0.0192896 0.0319872 0.0756487 -0.0613932 -0.0445241 0.0522791 0.0392178 0.0477321 -0.0100747 0.0801929 0.0765907 0.0717113 0.0519111
internal_weight=54429.6 39353.4 23763 15076.3 6473.38 3415.83 2267.18 4206.2 2006.95 15590.4 6478.17 17289.6 17165.5 2552.78 6024.55 945.287 16674.1 2492.74 2276.3 9112.25 11660.4 1424.64 1756.56 1384.27 1607.5 583.521 361.766 9057.09 6972.05 1243.26
internal_count=258585 181722 116743 76863 28272 14981 10870 17402 8540 64979 27606 88471 87950 10562 25422 4006 85666 12361 10127 37373 61882 7356 7299 5809 6935 2509 1497 37120 28701 5124
is_linear=0
shrinkage=0.05


Tree=7
num_leaves=31
num_cat=0
split_feature=5 12 12 5 5 5 1 5 5 9 10 4 10 4 5 5 5 5 5 5 4 4 5 5 12 5 12 5 5 5
split_gain=13436.3 15492.4 34060.2 1299.07 1508.27 1159 4581.54 2112.15 1901.29 1088.65 1038.36 997.695 983.62 847.749 804.739 5243.65 566.152 3737.43 560.835 1099.08 557.557 548.031 540.387 4825.58 2304.94 1152.61 527.035 3457.41 3621.75 491.128
threshold=1.4083721184106015 -0.23285248701017633 -0.22880605558706832 -0.6251403454047233 -0.63808836394948154 -0.33645260021371254 0.53658530091422996 -0.054774243884887545 -0.25265915908003883 1.0000000180025095e-35 1.528775236739756 0.63337464907065766 1.6278113333119084 0.57865194705261735 -0.22410417135585778 -0.16808236265337373 -0.43924377184317526 -0.4656987691032573 -0.67399897942448272 -0.68947571669541208 -0.84864957449995548 -1.9525660452375486 1.0000000180025095e-35 -0.030937199699679809 1.0000000180025095e-35 0.16083899910446692 -1.0791497900521834 0.019394866504950984 -0.030937199699679809 -0.068588321316248688
decision_type=2 2 2 2 2 2 2 2 2 2 2 2 2 2 2 2 2 2 2 2 2 2 2 2 2 2 2 2 2 2
left_child=1 26 5 4 11 16 7 -7 -8 10 21 13 -12 20 -5 -16 17 18 19 -3 -4 -2 23 -17 25 -24 27 28 -1 -10
right_child=9 2 3 14 -6 6 8 -9 29 -11 12 -13 -14 -15 15 22 -18 -19 -20 -21 -22 -23 24 -25 -26 -27 -28 -29 -30 -31
leaf_value=-0.068394877083816613 -0.070837220235506579 0.066604841197180603 0.036066824074884797 -0.064615692844224304 0.11102375382316072 -0.044494622089986113 -0.038646821755567218 0.10645944181686424 0.093404997940947768 0.08619992157351769 -0.06817730980823658 -0.060847430466789081 0.032000686543793434 0.14194405988725417 0.099291551485094609 -0.065627099861962038 0.095943170098648445 -0.069818619972587079 0.089475468348947707 -0.075705981050600293 -0.022719079673402524 0.065095830325454698 -0.065657780996841136 0.099806211049632304 -0.06554495764671063 0.09792026432498134 -0.065646062410246703 -0.066023130815811112 0.18528988182811326 0.035616180683441134
leaf_weight=257.93382984399796 75.740243047475815 4479.5665182471275 508.41887889802456 4527.9932873696089 224.69645367562771 1568.179664939642 336.66369856894016 271.90429408848286 2893.7915063202381 2580.0585753917694 292.41264860332012 1159.3850596547127 1512.2241394519806 94.617956534028053 639.38777071237564 2028.3908948153257 1817.9739251881838 483.18606017529964 3221.1201669275761 139.91027542948723 1951.7960973083973 3525.4090294986963 157.21515816450119 563.19315671920776 5861.5544249862432 341.84796081483364 8874.790380641818 2647.4936338067055 309.52553813159466 421.17147807776928
leaf_count=1312 367 17965 2200 24890 908 7835 1621 1092 11592 10336 1508 6091 6389 415 2558 11183 7286 2379 12895 624 9417 14271 866 2253 32403 1369 48888 14411 1571 1690
internal_value=-0.000368177 -0.0108073 0.00661591 -0.0401594 -0.0147692 0.060647 0.0421463 -0.0221885 0.0745652 0.0594779 0.0467241 -0.0223792 0.0157684 -0.00492224 -0.0472425 -0.039041 0.070665 0.065144 0.0734612 0.0622947 -0.0105706 0.0622369 -0.0489211 -0.0296758 -0.0567624 0.0463898 -0.0593627 -0.0420178 0.0699796 0.0860628
internal_weight=53767.6 45781.7 33692 18058.5 3938.91 15633.5 5491.71 1840.08 3651.63 7985.84 5405.79 3714.22 1804.64 2554.83 14119.6 9591.59 10141.8 8323.78 7840.6 4619.48 2460.21 3601.15 8952.2 2591.58 6360.62 499.063 12089.7 3214.95 567.459 3314.96
internal_count=258585 225714 159532 94553 19031 64979 23830 8927 14903 32871 22535 18123 7897 12032 75522 50632 41149 33863 31484 18589 11617 14638 48074 13436 34638 2235 66182 17294 2883 13282
is_linear=0
shrinkage=0.05


Tree=8
num_leaves=31
num_cat=0
split_feature=5 12 12 5 8 5 1 5 5 9 1 5 5 1 10 10 9 1 5 5 5 5 12 5 5 5 5 12 5 5
split_gain=12178.7 14468.5 31157.9 1259.23 1158.79 1027.11 4189.26 1968.18 1726.8 1000.46 977.199 809.871 4833.07 728.85 739.835 748.977 554.464 541.663 523.148 3382.97 527.564 794.957 516.945 3182.33 3015.31 512.879 4453.49 2161.07 1049.76 469.127
threshold=1.4083721184106015 -0.23285248701017633 -0.22880605558706832 -0.60659259954554179 1.3749708791652633 -0.33645260021371254 0.48590761328754906 -0.25265915908003883 -0.054774243884887545 1.0000000180025095e-35 1.0553624130690393 -0.22410417135585778 -0.16808236265337373 0.37285367810971787 1.528775236739756 1.6278113333119084 1.2594428006005762 0.48590761328754906 -0.43924377184317526 -0.4656987691032573 -0.57726826192588065 -0.59463554612586911 -1.0791497900521834 0.019394866504950984 -0.030937199699679809 1.0000000180025095e-35 -0.030937199699679809 1.0000000180025095e-35 0.16083899910446692 -0.63808836394948154
decision_type=2 2 2 2 2 2 2 2 2 2 2 2 2 2 2 2 2 2 2 2 2 2 2 2 2 2 2 2 2 2
left_child=1 22 5 4 16 18 8 -8 -7 10 13 -5 -13 14 -2 -16 29 -15 19 20 21 -3 23 24 -1 26 -14 28 -27 -4
right_child=9 2 3 11 -6 6 7 -9 -10 -11 -12 12 25 17 15 -17 -18 -19 -20 -21 -22 -23 -24 -25 -26 27 -28 -29 -30 -31
leaf_value=-0.067178909238204729 0.079236227406614568 0.064672461378344745 -0.011901910338109683 -0.06460724068792735 -0.056190018447921944 -0.051382755954622772 -0.038338735348013075 0.079662539034457011 0.10129620539527107 0.082186413536757832 0.078663989333490281 0.094595821749770284 -0.064634593510820251 -0.074599578737443106 -0.067473017872319505 0.039181313890913894 0.073317259395688575 0.015612475162442624 0.091741212442288222 -0.068482950775698145 0.093026793597141125 -0.097350072509006513 -0.06465194853791989 -0.064999678501117125 0.16241048282939308 -0.064662965562447647 0.095076084173482622 -0.064558822075783867 0.0934561185505213 0.054972690464163781
leaf_weight=249.68164819478989 1077.8585397899151 5886.383352637291 2287.0607536286116 4250.094889819622 1184.887808740139 1311.4995265901089 392.79365660250187 3520.8276948481798 215.64350180327892 2570.9484081715345 1497.3495558351278 637.60365834832191 1958.3369604945183 189.39584936201572 194.02532927691936 1085.6994664520025 253.06134994328022 1370.1397384107113 1806.4448414444923 468.35548788309097 1869.9969169646502 76.692791968584061 8568.4549697935581 2557.0143110752106 334.74172703921795 151.7896875590086 561.679443359375 5658.6777699291706 340.30168572068214 296.21061946451664
leaf_count=1312 4339 23654 10878 24292 6412 6734 1936 14297 863 10336 6007 2558 11183 899 1020 4531 1058 5739 7286 2379 7523 307 48888 14411 1571 866 2253 32403 1369 1281
internal_value=-0.000386416 -0.0105181 0.00636821 -0.0392349 -0.0146627 0.0579283 0.0404124 0.0678192 -0.0298234 0.056503 0.0443078 -0.0465226 -0.0382654 0.0311748 0.0487165 0.0230109 0.00268546 0.00465679 0.0673566 0.0620503 0.0698552 0.0625886 -0.0582909 -0.0409408 0.0643236 -0.0480353 -0.0290371 -0.0558189 0.044683 -0.00423374
internal_weight=52823.7 44838.2 33128.3 17579.7 4021.22 15548.6 5440.76 3913.62 1527.14 7985.42 5414.47 13558.5 9308.39 3917.12 2357.58 1279.72 2836.33 1559.54 10107.9 8301.43 7833.07 5963.08 11709.9 3141.44 584.423 8670.79 2520.02 6150.77 492.091 2583.27
internal_count=258585 225714 159532 94553 19629 64979 23830 16233 7597 32871 22535 74924 50632 16528 9890 5551 13217 6638 41149 33863 31484 23961 66182 17294 2883 48074 13436 34638 2235 12159
is_linear=0
shrinkage=0.05


Tree=9
num_leaves=31
num_cat=0
split_feature=5 5 5 5 5 10 5 5 5 5 10 10 1 5 5 9 1 5 5 5 5 9 0 9 9 5 1 10 10 5
split_gain=11069.4 9582.13 6270.35 3705.65 4362.06 3540.22 2173.82 1483.22 1235.22 1420.26 1115.1 1775.89 1047.77 1292.79 1692.22 923.799 888.564 853.609 816.025 1753.95 793.083 769.21 2309.31 1362.68 1897.35 692.363 657.148 666.355 684.232 622.239
threshold=1.4083721184106015 1.0000000180025095e-35 -0.054774243884887545 -0.11381279943055654 -0.15365451022594531 1.0000000180025095e-35 -0.51067782073890122 -0.5128879558775824 -0.43924377184317526 -0.43649090080229697 1.528775236739756 1.6278113333119084 0.57595624233586895 -0.25265915908003883 -0.25170692394901523 1.0000000180025095e-35 1.0553624130690393 -0.34652967198617818 -0.20632450864729837 -0.19392149707511461 -0.40558966372775607 0.71102256909969397 1.0000000180025095e-35 0.83730166154577301 0.8514653119826433 -0.39789439947717253 0.37285367810971787 1.528775236739756 1.6278113333119084 -0.34652967198617818
decision_type=2 2 2 2 2 2 2 2 2 2 2 2 2 2 2 2 2 2 2 2 2 2 2 2 2 2 2 2 2 2
left_child=1 2 3 4 5 6 7 21 -8 -10 -7 -12 17 29 -15 16 26 20 -16 -20 -11 22 -1 -23 -25 -22 27 -2 -29 -14
right_child=15 -3 -4 -5 -6 10 8 -9 9 12 11 -13 13 14 18 -17 -18 -19 19 -21 25 23 -24 24 -26 -27 -28 28 -30 -31
leaf_value=-0.010880125684785254 0.075215910802713185 -0.056527915484794737 0.10570519453512545 -0.067262134220073919 0.067717144145924765 0.075141200075731537 -0.064488438701049741 0.089245111767105548 0.080849442910666688 -0.063697425289888754 -0.053830877750803967 0.04890751829575643 -0.0024424754149024105 0.089108747356826806 -0.062994701190031324 0.07862321797932284 0.074954801253278844 -0.050170728840735139 0.090798469488884648 -0.066013510670398817 0.088386278680577315 -0.041761277467993067 0.054093971440856717 0.076528780753232384 -0.008450359237359012 -0.0053260336077604357 0.004421587623812946 -0.066339041293699094 0.037023440934444089 -0.05820828850360265
leaf_weight=3620.2606132626534 1078.6611458212137 8911.4947712421417 1387.7356197834015 2087.6836708784103 2306.6539404243231 1535.7141945064068 1791.9712103009224 480.84479011595249 341.51525767147541 458.60625687241554 596.31453822553158 1427.6189572364092 980.43754377961159 689.99352760612965 444.18841774761677 2553.5092687755823 1492.969425663352 3795.8180410265923 412.62045955657959 314.03315250575542 245.86987376213074 2394.8040680140257 2197.7418451458216 764.49597795307636 4664.6287254840136 993.59449973702431 1557.909930318594 187.63680382072926 1091.3758353590965 1021.276659861207
leaf_count=17865 4339 51870 5739 11795 10016 6341 10346 1952 1422 2717 3375 6281 5072 2802 2590 10336 6007 21301 1668 1822 1001 13156 9197 3077 23325 5178 6638 1020 4531 5806
internal_value=-0.000401155 -0.0102458 0.00155365 -0.00275225 0.00152604 -0.00370768 -0.0102011 0.00293758 -0.0263505 -0.0193034 0.0430145 0.0186376 -0.0229591 -0.00300414 0.0269975 0.0538366 0.0421342 -0.0369886 -0.0096056 0.0230301 -0.00752173 -0.000104547 0.0136637 -0.0103429 0.00351588 0.0132635 0.02962 0.0462707 0.0218597 -0.0308943
internal_weight=51828 43865.9 34954.4 33566.7 31479 29172.3 25612.7 14122.8 11489.9 9697.95 3559.65 2023.93 9356.44 3862.55 1860.84 7962.06 5408.55 5493.89 1170.84 726.654 1698.07 13641.9 5818 7823.93 5429.12 1239.46 3915.58 2357.67 1279.01 2001.71
internal_count=258585 225714 173844 168105 156310 146294 130297 68572 61725 51379 15997 9656 49957 19760 8882 32871 22535 30197 6080 3490 8896 66620 27062 39558 26402 6179 16528 9890 5551 10878
is_linear=0
shrinkage=0.05


Tree=10
num_leaves=31
num_cat=0
split_feature=5 12 12 5 5 5 1 5 5 4 9 1 5 5 4 12 5 5 4 5 5 5 5 5 5 4 8 5 5 12
split_gain=10089.2 13062.7 27128.5 1162.24 1279.33 902.462 3479.17 1696.99 1503.39 896.747 843.059 828.79 747.164 4318.79 722.373 522.833 2855.22 2299.17 511.985 462.793 2890.57 514.559 959.1 459.78 710.57 545.698 448.535 460.346 3778.43 1742.98
threshold=1.4083721184106015 -0.23285248701017633 -0.22880605558706832 -0.6251403454047233 -0.63808836394948154 -0.33645260021371254 0.48590761328754906 -0.25265915908003883 -0.054774243884887545 0.63337464907065766 1.0000000180025095e-35 1.1172730008981395 -0.22410417135585778 -0.16808236265337373 0.57865194705261735 -1.0791497900521834 0.019394866504950984 -0.030937199699679809 -0.84864957449995548 -0.43924377184317526 -0.4656987691032573 -0.67399897942448272 -0.68947571669541208 -0.94401635337949241 -0.87880536591210834 0.56275147428302696 1.8863838133181885 1.0000000180025095e-35 -0.030937199699679809 1.0000000180025095e-35
decision_type=2 2 2 2 2 2 2 2 2 2 2 2 2 2 2 2 2 2 2 2 2 2 2 2 2 2 2 2 2 2
left_child=1 15 5 4 9 19 8 -8 -7 14 11 -2 -5 -14 18 16 17 -1 -4 20 21 22 -3 -20 25 -25 27 28 -15 -29
right_child=10 2 3 12 -6 6 7 -9 -10 -11 -12 -13 13 26 -16 -17 -18 -19 23 -21 -22 -23 -24 24 -26 -27 -28 29 -30 -31
leaf_value=-0.065018472806214755 0.030977282586082889 0.058626115114924909 0.035295987785529621 -0.062292422881713154 0.10203462831115523 -0.048816383283081903 -0.036070605952365137 0.073942210300773012 0.094183748997538619 -0.058464061116156221 0.075214829661953017 0.081228270187573975 0.088809351409660495 -0.063215490106751177 0.13131971256355154 -0.063263909326146561 -0.063285388775301391 0.13599398988180592 -0.04775814136409446 0.086573993533878152 -0.066492025064562338 0.080754803596999172 -0.0758859110360494 0.15281162764596792 -0.016017035906665762 -0.069011743896047792 0.087508294219912408 0.041397333885142044 0.086961737862343375 -0.062898372704569008
leaf_weight=231.25079415738583 4428.6646209210157 4495.167895719409 504.46187105774879 4140.2745167464018 225.77016538381577 1250.2095461338758 390.19440716505051 3448.8253961801529 215.47557820379734 1093.0700704604387 2532.7068869322538 1007.1306096464396 637.4335453659296 1828.8701365441084 94.608718112111092 8086.5378372371197 2391.0565110594034 369.63665765523911 884.79667253792286 1753.8877359479666 439.3908554315567 3190.7156372666359 136.54545038938522 117.55586881935596 876.08816106617451 36.282629951834679 62.131896361708641 433.35284627974033 543.24482819437981 5298.7007194757462
leaf_count=1302 18611 18023 2179 24920 904 6697 1996 14222 867 6108 10351 4077 2591 11082 402 48823 14423 1590 4567 7193 2361 12993 608 537 4185 182 254 2042 2223 32509
internal_value=-0.000304117 -0.00984461 0.00631291 -0.0376142 -0.0134289 0.0544154 0.0377406 0.0627606 -0.0277934 -0.0206563 0.0513889 0.0402877 -0.0447753 -0.0365373 -0.00421639 -0.0566569 -0.0387996 0.0586346 -0.00951689 0.063247 0.0582949 0.0653043 0.0546606 -0.0213235 0.00138616 0.100495 -0.0463214 -0.0473474 -0.028823 -0.0550134
internal_weight=51144 43175.5 32097.1 16776.6 3832.63 15320.4 5304.7 3839.02 1465.69 3606.86 7968.5 5435.8 12944 8803.73 2513.79 11078.5 2991.94 600.887 2419.19 10015.7 8261.82 7822.43 4631.71 1914.72 1029.93 153.838 8166.3 8104.17 2372.11 5732.05
internal_count=258822 225783 159645 94685 19064 64960 23782 16218 7564 18160 33039 22688 75621 50701 12052 66138 17315 2892 11650 41178 33985 31624 18631 9471 4904 719 48110 47856 13305 34551
is_linear=0
shrinkage=0.05


Tree=11
num_leaves=31
num_cat=0
split_feature=5 12 12 5 4 5 5 1 5 5 9 3 5 5 5 5 1 5 5 10 10 12 5 5 1 1 1 5 5 5
split_gain=9181.2 12235.9 24937.4 1123.22 1160.79 958.956 809.686 3200.2 1614.99 1427.92 796.158 779.43 710.046 4003.43 666.896 729.95 655.328 653.16 739.674 613.937 620.876 506.777 2655.5 2014.55 470.821 441.264 532.055 437.419 2634.8 488.311
threshold=1.4083721184106015 -0.23285248701017633 -0.22880605558706832 -0.6251403454047233 0.63337464907065766 -0.94401635337949241 -0.33645260021371254 0.53658530091422996 -0.15365451022594531 -0.31067793434855834 1.0000000180025095e-35 1.0424078941354937 -0.22410417135585778 -0.16808236265337373 -0.87880536591210834 -0.63808836394948154 0.37285367810971787 -0.69955429699850535 -0.70294908377848908 1.528775236739756 1.6278113333119084 -1.0791497900521834 0.019394866504950984 -0.030937199699679809 0.77857859373790383 0.48590761328754906 0.49103162010717455 -0.43924377184317526 -0.4656987691032573 -0.67399897942448272
decision_type=2 2 2 2 2 2 2 2 2 2 2 2 2 2 2 2 2 2 2 2 2 2 2 2 2 2 2 2 2 2
left_child=1 21 6 4 5 -4 27 8 -8 -9 11 16 -5 -14 -7 17 19 18 24 -2 -21 22 23 -1 -16 -18 -27 28 29 -3
right_child=10 2 3 12 -6 14 7 9 -10 -11 -12 -13 13 -15 15 -17 25 -19 -20 20 -22 -23 -24 -25 -26 26 -28 -29 -30 -31
leaf_value=-0.064073124566882578 0.070287107024865722 0.052122546690706567 -0.033080448084870172 -0.061439341809005982 -0.057372167194344438 0.10263937594481626 -0.050035533966761504 -0.067894385706677926 0.057264520861611427 0.071485343690642786 0.072341066588480774 0.067101214040231422 0.085466691037428794 -0.045560741125761903 -0.01596408426025572 0.096993194983368808 -0.073672272885987253 -0.071314041497218442 0.14579522772653053 -0.065756406198304515 0.033113406506414166 -0.062450958932421946 -0.062470874246480429 0.12506133249011245 0.077815236982285665 0.098591844427630651 -0.0021201676841556432 0.083543524203363959 -0.065432577495837571 0.077650792092038817
leaf_weight=223.13526627421379 1060.6189138889313 4614.6150886267424 1052.4716402739286 3991.6424845904112 1059.045352101326 252.9179152995348 1231.1415977478027 194.5427512973547 490.35116499662399 3314.6306807696819 2502.4122534245253 1637.3503363132477 629.44327457249165 7896.2624276429415 666.22139604389668 225.62839496135712 181.25565646588802 259.11791956424713 101.55869603157043 185.20105700194836 1113.3783749043941 7789.7334452271461 2303.3426362723112 381.51607137918472 167.48511680960655 148.68647316098213 1111.2453173696995 1727.2964808344841 424.55603636801243 3153.2797725349665
leaf_count=1302 4282 18631 5388 24920 6108 1109 6883 1003 2018 13878 10351 6673 2591 48110 3151 904 874 1250 453 1026 4588 48823 14423 1590 701 597 4648 7193 2361 12993
internal_value=-0.000318641 -0.00960958 0.0061016 -0.0368189 -0.0129496 0.00431233 0.0522839 0.0363659 -0.0194721 0.0637584 0.0490019 0.0382614 -0.0440354 -0.0358871 0.0278368 0.0145138 0.0258361 -0.00106724 0.0183948 0.042064 0.0190128 -0.0558018 -0.0379904 0.0552648 0.00287545 -0.000728753 0.00976501 0.0606774 0.0558563 0.0624854
internal_weight=50090.1 42149.9 31452.2 16301.8 3784.45 2725.4 15150.4 5230.67 1721.49 3509.17 7940.15 5437.74 12517.3 8525.71 1672.93 1420.01 3800.39 1194.38 935.265 2359.2 1298.58 10697.7 2907.99 604.651 833.707 1441.19 1259.93 9919.75 8192.45 7767.89
internal_count=258822 225783 159645 94685 19064 12956 64960 23782 8901 14881 33039 22688 75621 50701 7568 6459 16015 5555 4305 9896 5614 66138 17315 2892 3852 6119 5245 41178 33985 31624
is_linear=0
shrinkage=0.05


Tree=12
num_leaves=31
num_cat=0
split_feature=5 12 12 5 4 5 4 9 1 5 5 5 1 5 5 5 5 5 5 5 12 5 5 5 4 4 5 5 5 5
split_gain=8384.47 11476.9 22905.2 1067.02 1086.69 871.353 765.602 746.35 729.28 696.09 3692.93 657.763 2882.33 1469.41 1336.61 579.058 663.001 604.109 685.448 693.243 490.038 2476.16 1785.14 460.198 443.566 442.433 438.481 883.748 426.989 3607.47
threshold=1.4083721184106015 -0.23285248701017633 -0.22880605558706832 -0.6251403454047233 0.63337464907065766 -0.94401635337949241 -1.9525660452375486 1.0000000180025095e-35 1.1172730008981395 -0.22410417135585778 -0.16808236265337373 -0.33645260021371254 0.53658530091422996 -0.15365451022594531 -0.31067793434855834 -0.87880536591210834 -0.63808836394948154 -0.69955429699850535 -0.75567622231626264 -0.82595049024019118 -1.0791497900521834 0.019394866504950984 -0.030937199699679809 -0.86962226865816017 -1.1231478800766175 -0.091569054490683671 -0.74607417211239413 -0.70294908377848908 1.0000000180025095e-35 -0.030937199699679809
decision_type=2 2 2 2 2 2 2 2 2 2 2 2 2 2 2 2 2 2 2 2 2 2 2 2 2 2 2 2 2 2
left_child=1 20 6 4 5 24 -3 8 -2 -5 -11 -8 13 -13 -14 -7 17 18 19 23 21 22 -1 -17 -4 -25 -20 -28 29 -12
right_child=7 2 3 9 -6 15 11 -9 -10 10 28 12 14 -15 -16 16 -18 -19 26 -21 -22 -23 -24 25 -26 -27 27 -29 -30 -31
leaf_value=-0.0631997510647032 0.027871579410439086 -0.076240062258160546 0.062138350666807333 -0.060642442438611423 -0.0563330849852147 0.095154218984055905 0.05889711083435082 0.069728332557398534 0.075411964864279618 0.082514860163798567 -0.061854738200725158 -0.048356037050260203 -0.066720382738014755 0.055091740867954223 0.070332223925309814 -0.073227261619791068 0.092654405611399829 -0.069862795184244694 0.14753629144062577 -0.073378935317044938 -0.061697331669880819 -0.061715824723008961 0.11623870791262461 0.11406401295463423 -0.043290013128564772 -0.028823740360386808 -0.07043637708684225 0.13304303894983849 -0.051947554435336857 0.085387948307990527
leaf_weight=215.11122685670853 4422.2548866868019 118.58473284542561 111.82928259670734 3845.5942453294992 1025.5043820142746 259.00375920534134 9769.713137999177 2467.2563277930021 986.68148033320904 619.6083839982748 1713.3771013319492 1157.7989693284035 188.22771029174328 487.94438508152962 3241.4076561480761 75.574040874838829 224.41162411868572 251.46941794455051 127.10339087247849 273.99751663208008 7498.0294330716133 2217.1301586031914 389.7168830037117 167.15200732648373 924.86298340559006 80.152661070227623 107.85571196675301 105.61355875432491 5446.1321423649788 549.35966221988201
leaf_count=1302 18611 623 494 24920 6108 1109 40952 10351 4077 2591 11082 6640 1003 2007 13735 355 904 1250 575 1295 48823 14423 1590 719 4894 381 527 453 34764 2264
internal_value=-0.000327833 -0.00936551 0.00589359 -0.0358756 -0.0124958 0.00409881 0.0503004 0.046939 0.0365437 -0.0430476 -0.0349233 0.0513112 0.036709 -0.0176849 0.0628104 0.0264255 0.0138304 -0.00104785 0.0174117 -0.0148842 -0.0550132 -0.0372531 0.0524202 0.034755 -0.0319173 0.0677534 0.0740122 0.0302347 -0.0443625 -0.0261063
internal_weight=49068.5 41192.3 30872.3 15908.6 3734.53 2709.03 14963.7 7876.19 5408.94 12174.1 8328.48 14845.1 5075.38 1645.74 3429.64 1672.33 1413.33 1188.92 937.449 596.876 10320 2821.96 604.828 322.879 1036.69 247.305 340.573 213.469 7708.87 2262.74
internal_count=258822 225783 159645 94685 19064 12956 64960 33039 22688 75621 50701 64337 23385 8647 14738 7568 6459 5555 4305 2750 66138 17315 2892 1455 5388 1100 1555 980 48110 13346
is_linear=0
shrinkage=0.05


Tree=13
num_leaves=31
num_cat=0
split_feature=12 12 5 5 10 10 5 8 5 5 4 4 1 5 5 10 10 12 5 5 3 1 8 5 5 12 5 4 4 4
split_gain=7655.72 13751.7 10090.6 7980.14 1144.96 1174.48 1023.57 911.265 710.169 3426.65 702.009 625.897 609.013 2637.71 1225.91 538.776 804.049 472.897 2313.8 1596.09 453.723 625.823 427.066 421.804 3317.24 1757.74 923.827 397.716 391.794 874.817
threshold=-0.23285248701017633 -0.22880605558706832 1.4083721184106015 1.4083721184106015 1.528775236739756 1.6278113333119084 -0.60659259954554179 1.3749708791652633 -0.22410417135585778 -0.16808236265337373 -1.9525660452375486 -1.6584348566595375 0.48590761328754906 -0.33645260021371254 -0.054774243884887545 1.6399767619173344 1.7006713658702035 -1.0791497900521834 0.019394866504950984 -0.030937199699679809 1.0424078941354937 0.64667359743884922 1.8863838133181885 1.0000000180025095e-35 -0.030937199699679809 1.0000000180025095e-35 0.16083899910446692 3.7533305778057513 0.66152694343802032 0.43458648098077074
decision_type=2 2 2 2 2 2 2 2 2 2 2 2 2 2 2 2 2 2 2 2 2 2 2 2 2 2 2 2 2 2
left_child=3 10 6 17 -4 -6 7 28 -8 -10 -2 -5 13 -12 -15 -7 -17 18 19 -1 21 -13 23 24 -11 26 -25 -9 29 -3
right_child=1 2 4 11 5 15 8 27 9 22 12 20 -14 14 -16 16 -18 -19 -20 -21 -22 -23 -24 25 -26 -27 -28 -29 -30 -31
leaf_value=-0.062391391111366191 -0.074636814842433286 0.00017459992668894213 0.068334604624564296 -0.077596565457171918 -0.07056360516621811 0.083590061971042059 -0.060966460076835705 -0.05548298835638045 0.079891185416924845 -0.061144377856267557 0.054667993874563559 0.071534419933208498 0.057861762262329322 -0.045492101730758253 0.08596632989154214 -0.077710870511826485 0.032926039721019977 -0.060997595501672212 -0.061014797706268747 0.10897100450145991 0.065568113962944291 -0.012497648500036542 0.087262698880893247 -0.062288259880529752 0.08256045366281585 -0.060986940698336711 0.09485106698736466 0.22847554746275878 -0.044670412889786237 0.10260747628348726
leaf_weight=207.20369616150856 115.16230867803097 2132.4289778023958 2643.8009973317385 101.27891127765179 305.12795694172382 440.04205471277237 3586.4686759412289 1039.3077860027552 608.2446806281805 1648.2676706910133 4746.9027838855982 371.01833480596542 8597.7076643556356 1127.5487231016159 210.44649560749531 182.14461635053158 1668.6045506447554 7212.0831172019243 2132.6141418367624 394.77692252397537 1567.7511702179909 550.03607149422169 61.902771398425102 137.55892242491245 530.93930299580097 4800.7806453108788 292.23563031852245 12.47921186685562 377.46244183182716 231.02045224606991
leaf_count=1302 623 10106 11063 463 1657 1848 24329 6349 2591 11082 19867 1545 37148 6455 867 856 6859 48823 14423 1590 6502 2246 254 869 2223 32509 1173 73 2163 964
internal_value=-0.000339368 0.0115235 -0.0147901 -0.033928 0.0451744 0.021587 -0.0351145 -0.0125497 -0.0424502 -0.0342313 0.0483305 0.0442464 0.049295 0.0371905 -0.0248157 0.0338613 0.0220375 -0.0542844 -0.0365793 0.0499875 0.0492047 0.0213521 -0.0435217 -0.0446143 -0.0261323 -0.0523144 0.0445575 -0.0521139 0.00263246 0.0101871
internal_weight=48033.3 35496.6 20698.8 12536.8 5239.72 2595.92 15459.1 3792.7 11666.4 8079.93 14797.8 2590.08 14682.6 6084.9 1338 2290.79 1850.75 9946.68 2734.59 601.981 2488.81 921.054 7471.68 7409.78 2179.21 5230.58 429.795 1051.79 2740.91 2363.45
internal_count=258822 181928 116968 76894 22283 11220 94685 19655 75030 50701 64960 10756 64337 27189 7322 9563 7715 66138 17315 2892 10293 3791 48110 47856 13305 34551 2042 6422 13233 11070
is_linear=0
shrinkage=0.05


Tree=14
num_leaves=31
num_cat=0
split_feature=5 5 5 5 5 10 5 5 5 5 5 5 10 10 9 1 5 5 5 5 5 5 5 5 5 5 4 5 4 5
split_gain=7004.09 6955.01 4175.12 2957.07 3103.08 2539.28 1567.56 1035.88 990.461 985.457 836.937 1589.32 714.185 1232.1 692.265 655.281 578.994 3149.88 1208.51 1311.23 503.02 1144.2 862.415 811.484 876.719 1154.7 733.95 606.715 497.7 472.509
threshold=1.4083721184106015 1.0000000180025095e-35 -0.054774243884887545 -0.11381279943055654 -0.15365451022594531 1.0000000180025095e-35 -0.51067782073890122 -0.5128879558775824 -0.43924377184317526 -0.43649090080229697 -0.19392149707511461 -0.20632450864729837 1.528775236739756 1.6278113333119084 1.0000000180025095e-35 1.1172730008981395 -0.25265915908003883 -0.25170692394901523 -0.34652967198617818 -0.35726310991366084 -0.53493482258969138 -0.5417756557230895 -0.57407715302243767 -0.57726826192588065 -0.60659259954554179 -0.61621375964670533 0.61838429948553431 -1.162431406291472 0.85667373722929463 -0.63460169223126117
decision_type=2 2 2 2 2 2 2 2 2 2 2 2 2 2 2 2 2 2 2 2 2 2 2 2 2 2 2 2 2 2
left_child=1 2 3 4 5 6 7 20 -8 -10 11 16 -7 -14 15 -2 18 -18 19 -11 21 22 23 24 25 26 29 -28 -29 -1
right_child=14 -3 -4 -5 -6 12 8 -9 9 10 -12 -13 13 -15 -16 -17 17 -19 -20 -21 -22 -23 -24 -25 -26 -27 27 28 -30 -31
leaf_value=0.0091191507887374429 0.024953719067539022 -0.052019480563321487 0.086409337888254084 -0.065253493671498283 0.059378004573344356 0.063378469520780203 -0.061442475893816975 0.077290699190807471 0.070077433947821358 -0.02161513616326706 -0.062305712562731909 0.077202314942012018 -0.049459082649642598 0.041926415653132335 0.065480796227925839 0.070589519519840702 0.08489929220260399 -0.046484109106173656 -0.055682750290505262 0.07845747758114785 -0.060523186204213722 0.073846960883907506 -0.060545394135203726 0.07901940821529628 -0.066940925517269559 0.086601733322908381 0.04556568900894381 -0.071115064970956168 -0.018695716465216249 -0.066100257485752462
leaf_weight=7037.6384224295616 4397.8740740120411 7559.9701114445925 1380.0292949229479 1768.6601181477308 2133.1924368292093 1480.4597184211016 1509.7211597710848 443.493636906147 309.59207101166248 1973.0648366361856 1057.44774697721 441.86786964535713 508.86669851839542 1340.3072067201138 2389.3150479346514 957.9424015134573 724.23500189185143 1232.6416649222374 2341.7114947885275 392.43866418302059 339.16886039078236 519.1455062776804 597.15356680750847 324.65762853622437 484.54397827386856 387.06467409431934 284.17016242444515 601.2762915790081 1833.9907537847757 215.1640020608902
leaf_count=35221 18611 51954 5795 11784 9930 6444 10224 1942 1398 12306 7179 1939 3366 6224 10351 4077 3211 8052 15630 1698 2362 2286 4153 1398 3175 1661 1410 3462 10245 1334
internal_value=-0.000350536 -0.00893082 0.0013576 -0.00251847 0.00137298 -0.00331757 -0.00921348 0.00218309 -0.0241317 -0.0174836 -0.0208043 -0.0146285 0.0374983 0.0167784 0.0431004 0.0331161 -0.0207174 0.00214055 -0.0302198 -0.00501302 -0.000455525 0.00120287 -0.00200246 0.00112769 -0.00120433 0.00187041 -0.00141836 -0.0235707 -0.0316382 0.00688767
internal_weight=46966.8 39221.7 31661.7 30281.7 28513 26379.8 23050.2 13067.5 9982.72 8473 8163.41 7105.96 3329.63 1849.17 7745.13 5355.82 6664.09 1956.88 4707.21 2365.5 12624 12284.8 11765.7 11168.5 10843.8 10359.3 9972.24 2719.44 2435.27 7252.8
internal_count=258822 225783 173829 168034 156250 146320 130286 68649 61637 51413 50015 42836 16034 9590 33039 22688 40897 11263 29634 14004 66707 64345 62059 57906 56508 53333 51672 15117 13707 36555
is_linear=0
shrinkage=0.05


Tree=15
num_leaves=31
num_cat=0
split_feature=12 12 5 5 10 10 5 4 5 4 5 5 4 10 10 5 5 5 5 5 5 1 5 5 12 5 5 5 5 5
split_gain=6874.39 11930.3 8695.66 7033.48 1072.7 1076.54 1001.01 959.304 767.258 618.263 610.377 3043.36 581.943 515.586 723.604 514.28 584.804 546.058 629.518 626.909 512.687 2336.51 1199.53 1165.76 460.994 2099.78 1317.23 433.053 2216.43 435.023
threshold=-0.23285248701017633 -0.22880605558706832 1.4083721184106015 1.4083721184106015 1.528775236739756 1.6278113333119084 -0.6251403454047233 0.63337464907065766 -0.94401635337949241 -1.9525660452375486 -0.22410417135585778 -0.16808236265337373 -1.6584348566595375 1.6399767619173344 1.7006713658702035 -0.87880536591210834 -0.63808836394948154 -0.69955429699850535 -0.75567622231626264 -0.82595049024019118 -0.33645260021371254 0.53658530091422996 -0.15365451022594531 -0.31067793434855834 -1.0791497900521834 0.019394866504950984 -0.030937199699679809 -0.43924377184317526 -0.4656987691032573 -0.67399897942448272
decision_type=2 2 2 2 2 2 2 2 2 2 2 2 2 2 2 2 2 2 2 2 2 2 2 2 2 2 2 2 2 2
left_child=3 9 6 24 -4 -6 7 8 -3 -2 -8 -12 -5 -7 -15 -10 17 18 19 -17 27 22 -22 -23 25 26 -1 28 29 -11
right_child=1 2 4 12 5 13 10 -9 15 20 11 -13 -14 14 -16 16 -18 -19 -20 -21 21 23 -24 -25 -26 -27 -28 -29 -30 -31
leaf_value=-0.060906221940616782 -0.07296371884187168 -0.030193989869832308 0.064380406539780999 -0.07673911090226905 -0.069833606515619526 0.079640968374536381 -0.058768101828637988 -0.054318405895367843 0.087466204321026711 0.044703901429555104 0.076473752087397234 -0.042602160550611098 0.045445409178124035 -0.077029620803933385 0.029281911090040181 0.031213201432054673 0.088030190733196789 -0.06867153489071863 0.069361345566775298 -0.071891682024873962 -0.046298881330815632 -0.065867267655688941 0.048908443517508338 0.064396782064733246 -0.060002036895287325 -0.059837348000699835 0.098503799742371626 0.076532160121133855 -0.065699220409746059 0.069357836373847723
leaf_weight=190.92957293987274 109.20703557133675 1014.1402142643929 2587.7454985529184 101.49506457149982 302.50888656079769 433.26416645944118 3462.1952642500401 950.2620954066515 274.69222341477871 4509.6765603274107 581.53158999979496 6943.8798966407776 2445.9532948583364 177.23337040841579 1651.7449421882629 326.68977653980255 217.28848600387573 239.29769848287106 347.65026579797268 268.68206717073917 1082.2730576992035 181.841598123312 476.49172593653202 3095.0657912492752 6766.0978157967329 1985.9170301705599 403.3702040463686 1643.7941348254681 404.36224272847176 2966.1526724547148
leaf_count=1299 620 5394 11097 472 1679 1878 24964 6120 1146 18545 2568 47840 10310 848 6820 1465 887 1223 1560 1303 6647 997 2005 13753 48796 14464 1614 7271 2235 12938
internal_value=-0.000322024 0.0110513 -0.0141893 -0.033071 0.041668 0.018752 -0.0338664 -0.0111363 0.00412688 0.0455548 -0.0413938 -0.0334005 0.0405774 0.0305978 0.01898 0.0249154 0.0126389 -0.00121661 0.0159005 -0.0153164 0.0464561 0.0331973 -0.0171954 0.0571682 -0.0531447 -0.0351627 0.0472904 0.0531881 0.0483186 0.0544857
internal_weight=46141.4 34247.7 19778.8 11893.8 5152.5 2564.75 14626.3 3638.7 2688.44 14468.9 10987.6 7525.41 2547.45 2262.24 1828.98 1674.3 1399.61 1182.32 943.022 595.372 14359.7 4835.67 1558.76 3276.91 9346.31 2580.22 594.3 9523.99 7880.19 7475.83
internal_count=258758 181803 116792 76955 22322 11225 94470 19098 12978 65011 75372 50408 10782 9546 7668 7584 6438 5551 4328 2768 64391 23402 8652 14750 66173 17377 2913 40989 33718 31483
is_linear=0
shrinkage=0.05


Tree=16
num_leaves=31
num_cat=0
split_feature=12 12 5 5 10 10 5 8 5 5 4 4 10 10 1 5 5 12 5 5 3 1 8 0 10 10 10 10 5 5
split_gain=6399.92 10968.2 8022.68 6593.45 991.034 993.464 953.824 856.016 641.482 2817.4 570.196 532.485 483.743 663.946 474.637 2146.77 1035.15 442.545 1970.02 1198.4 427.743 548.579 411.146 369.887 517.809 428.372 401.324 469.688 353.193 2892.23
threshold=-0.23285248701017633 -0.22880605558706832 1.4083721184106015 1.4083721184106015 1.528775236739756 1.6278113333119084 -0.60659259954554179 1.3749708791652633 -0.22410417135585778 -0.16808236265337373 -1.9525660452375486 -1.6584348566595375 1.6399767619173344 1.7006713658702035 0.48590761328754906 -0.33645260021371254 -0.054774243884887545 -1.0791497900521834 0.019394866504950984 -0.030937199699679809 1.0424078941354937 0.64667359743884922 1.8863838133181885 0.89949733304675716 1.7056752044287149 1.7398616361861736 1.7496819182673697 1.7792540437415407 1.0000000180025095e-35 -0.030937199699679809
decision_type=2 2 2 2 2 2 2 2 2 2 2 2 2 2 2 2 2 2 2 2 2 2 2 2 2 2 2 2 2 2
left_child=3 10 6 17 -4 -6 7 -3 -8 -10 -2 -5 -7 -14 15 -12 -17 18 19 -1 21 -13 28 24 -15 -26 -27 -28 29 -11
right_child=1 2 4 11 5 12 8 -9 9 22 14 20 13 23 -16 16 -18 -19 -20 -21 -22 -23 -24 -25 25 26 27 -29 -30 -31
leaf_value=-0.060261822252835266 -0.071617250294254794 0.0033599432277810963 0.062138978818914975 -0.074891351217134736 -0.068691726367850189 0.077405849080702985 -0.059300265161835557 -0.051009132678126706 0.074479131239340732 -0.059726315635945118 0.049827861660207806 0.064604358172732787 -0.07524426835473555 0.087978938188134362 0.052626002641083094 -0.043619559311892889 0.080454640917794071 -0.059419947451318622 -0.059266093011271205 0.093954505322818363 0.059940480445376858 -0.01424075457406096 0.086747952392348032 0.067144340180483528 -0.099905347752347315 0.091825231557282463 -0.098634296563826343 0.012172525081481792 -0.050173490620785702 0.07870059146824282
leaf_weight=183.51053912937641 105.78412549197674 2708.5784663707018 2548.0444890856743 98.86587530374527 292.41667440533638 423.72704312205315 3217.2065133601427 988.06029772758484 567.6028556227684 1510.5948784798384 4606.1554319858551 363.32847620546818 172.48708042502403 196.02566759288311 8256.3217479586601 1057.2142826914787 199.88979297876358 6497.558482632041 1906.8083753883839 401.7893313318491 1503.8923404067755 561.63702723383904 61.934040606021881 439.45021872222424 98.436276137828827 128.40581554174423 111.39632511138916 675.91529396176338 4702.5883955955505 502.98238924145699
leaf_count=1299 620 13248 11097 472 1679 1878 24371 6443 2568 11168 19831 1563 848 822 37223 6480 857 48796 14464 1614 6470 2277 256 1809 405 532 457 2795 34245 2171
internal_value=-0.000327913 0.0107057 -0.0138014 -0.032489 0.0401108 0.0179978 -0.0330316 -0.0111722 -0.0406816 -0.0325272 0.0440342 0.0388548 0.0292851 0.0180947 0.0449007 0.0340223 -0.0238908 -0.0525495 -0.0346365 0.0456027 0.0434848 0.0167298 -0.041488 0.0278544 0.0135871 -0.000792108 0.0098622 -0.00350548 -0.0426706 -0.0251479
internal_weight=45088.6 33571.2 19345.9 11517.4 5086.3 2538.26 14259.5 3696.64 10562.9 7345.7 14225.4 2527.72 2245.84 1822.12 14119.6 5863.26 1257.1 8989.67 2492.11 585.3 2428.86 924.966 6778.1 1649.63 1210.18 1014.15 915.717 787.312 6716.17 2013.58
internal_count=258758 181803 116792 76955 22322 11225 94470 19691 74779 50408 65011 10782 9546 7668 64391 27168 7337 66173 17377 2913 10310 3840 47840 6820 5011 4189 3784 3252 47584 13339
is_linear=0
shrinkage=0.05


Tree=17
num_leaves=31
num_cat=0
split_feature=5 5 5 5 5 10 5 5 5 5 5 5 9 1 10 10 5 5 5 5 5 5 5 5 5 5 5 5 5 4
split_gain=5392.21 5775.21 3412.01 2599.51 2545.25 2016.65 1312.06 890.109 872.286 1135.99 847.159 801.095 635.724 584.947 565.684 964.067 469.276 2614.54 1083.13 1049.56 422.288 943.9 714.979 663.156 798.182 939.668 624.838 917.155 560.894 433.402
threshold=1.4083721184106015 1.0000000180025095e-35 -0.054774243884887545 -0.11381279943055654 -0.15365451022594531 1.0000000180025095e-35 -0.51067782073890122 -0.43924377184317526 -0.19392149707511461 -0.20632450864729837 -0.5128879558775824 -0.43649090080229697 1.0000000180025095e-35 1.1172730008981395 1.528775236739756 1.6278113333119084 -0.25265915908003883 -0.25170692394901523 -0.34652967198617818 -0.35726310991366084 -0.53493482258969138 -0.5417756557230895 -0.57407715302243767 -0.57726826192588065 -0.60659259954554179 -0.61621375964670533 -0.63460169223126117 -0.64157983779543637 -0.67169267372876418 0.61838429948553431
decision_type=2 2 2 2 2 2 2 2 2 2 2 2 2 2 2 2 2 2 2 2 2 2 2 2 2 2 2 2 2 2
left_child=1 2 3 4 5 6 10 -8 9 11 20 -9 13 -2 -7 -16 18 -18 19 -13 21 22 23 24 25 26 27 28 29 -1
right_child=12 -3 -4 -5 -6 14 7 8 -10 -11 -12 16 -14 -15 15 -17 17 -19 -20 -21 -22 -23 -24 -25 -26 -27 -28 -29 -30 -31
leaf_value=0.0073252343802636833 0.021032617292619099 -0.049756996013696049 0.079783662688174495 -0.064353247037003264 0.055061350822273231 0.05770818423701083 -0.060004735826558568 0.065302005697891616 -0.061103079710581279 0.071643954535345236 0.072361404500272217 -0.019046487752211669 0.060408327508436326 0.06506987656220857 -0.046786349763595372 0.037400319682596432 0.079994303984782522 -0.044382022962510599 -0.053542375657596647 0.073147162799306983 -0.058794239586140488 0.069051756715150611 -0.058815002145300978 0.073736071350913243 -0.067028834510760069 0.081198502303583012 -0.072298094065283036 0.081997675156944005 -0.061696800940784981 -0.018057452874346396
leaf_weight=6334.3837447762489 4329.280227124691 6820.4466050639749 1321.8236706703901 1597.7451226338744 2034.2378101050854 1412.6730860471725 1377.5427984669805 294.7238681614399 956.485684633255 399.94475881755352 413.28770287334919 1820.0372728705406 2263.7840370088816 913.12744419276714 462.05112133920193 1288.0631493777037 676.70643572509289 1124.9387100785971 2118.9438621774316 371.76159751415253 302.26612196862698 489.20459443330765 525.90294960141182 303.62944374978542 441.33605071157217 358.21067978441715 300.03264244645834 336.94357514381409 377.29087338596582 2289.6002681925893
leaf_count=32428 18639 51733 5756 11803 9960 6439 10349 1424 7228 1900 1936 12229 10380 4085 3362 6215 3191 8064 15624 1719 2377 2282 4129 1392 3208 1624 1977 1425 2559 13321
internal_value=-0.00033468 -0.00826177 0.00125785 -0.00239596 0.00129636 -0.00311803 -0.00857492 -0.0229648 -0.0163925 -0.0101101 0.00197177 -0.0152134 0.038265 0.0287031 0.0341721 0.015174 -0.0190956 0.00233431 -0.0280521 -0.00340908 -0.000440676 0.00105962 -0.00189246 0.000894484 -0.00122444 0.00168078 -0.00127454 0.00100741 -0.00202428 0.00058633
internal_weight=44056.4 36550.2 29729.8 28407.9 26810.2 24776 21613.2 9141.08 7763.54 6807.06 12472.1 6407.11 7506.19 5242.41 3162.79 1750.11 6112.39 1801.65 4310.74 2191.8 12058.8 11756.5 11267.3 10741.4 10437.8 9996.46 9638.25 9338.22 9001.27 8623.98
internal_count=258758 225654 173921 168165 156362 146402 130386 61728 51379 44151 68658 42251 33104 22724 16016 9577 40827 11255 29572 13948 66722 64345 62063 57934 56542 53334 51710 49733 48308 45749
is_linear=0
shrinkage=0.05


Tree=18
num_leaves=31
num_cat=0
split_feature=12 12 8 8 10 4 10 4 10 9 8 10 4 0 4 3 1 0 8 1 12 9 8 3 4 4 10 4 4 4
split_gain=5777.16 9593.51 4937.59 4903.34 1425.66 977.827 730.662 655.159 632.3 513.755 507.696 506.154 496.567 487.965 485.341 451.394 446.704 420.901 415.146 411.063 357.103 356.619 331.814 316.272 304.013 972.12 268.979 254.5 234.953 546.129
threshold=-0.23285248701017633 -0.22880605558706832 -1.0058707782594902 -1.0058707782594902 1.528775236739756 -1.5229902738188548 1.6278113333119084 3.7533305778057513 1.6399767619173344 1.2594428006005762 -0.57486346065374627 1.7006713658702035 0.065051451441212077 1.0000000180025095e-35 -0.83115653285558033 1.0424078941354937 0.53658530091422996 0.467853789654818 -0.33109825452577374 0.64667359743884922 -1.0791497900521834 1.0754666136696793 -1.4405520993980303 0.98083550393665742 0.66152694343802032 0.69029326117426815 1.0000000180025095e-35 -0.67978483752938035 0.85667373722929463 0.80110103369950891
decision_type=2 2 2 2 2 2 2 2 2 2 2 2 2 2 2 2 2 2 2 2 2 2 2 2 2 2 2 2 2 2
left_child=2 10 5 4 13 -1 -6 9 -8 14 16 -10 22 26 18 19 -2 24 -5 -7 -4 -19 -13 -21 -12 -26 -3 -23 29 -27
right_child=1 3 20 7 6 15 8 -9 11 -11 17 12 -14 -15 -16 -17 -18 21 -20 23 -22 27 -24 -25 25 28 -28 -29 -30 -31
leaf_value=-0.03175697878946683 -0.032234854362346223 0.0068758316369805367 -0.033242201820525112 -0.024361480532210003 -0.06078513510238448 0.054624605655375663 0.07032468644247028 0.088133163661592684 -0.06472531447354711 0.014276637255771244 0.042905068364084559 0.0097450685297683498 0.046521645649433292 0.067605055873598038 -0.038020119756421139 0.054535043520596384 0.03645591618317863 0.061171537892412101 0.028885620521649572 -0.056848360814276327 -0.058592699269376131 -0.015053807620557014 -0.042991119398605532 0.017157368146356541 -0.1014951136727002 0.032588033706910276 0.073876010426279767 0.041825177159156186 0.038616764432914563 -0.093908337694882854
leaf_weight=653.81996174156666 416.92267745733261 674.57521701604128 1803.4052604809403 1407.6858219355345 400.15659691393375 327.15474924445152 391.94637846946716 115.49048735201359 255.60498348623514 584.83412628620863 4743.0697468370199 947.11389343440533 635.97351817786694 1754.0594136863947 10219.927863128483 1460.9483062773943 547.47313931584358 4475.3700881004333 494.69927576184273 257.36376924067736 6048.2066874429584 230.95192147791386 435.39511582255363 328.81803126633167 152.53308983147144 297.37923777103424 192.55773408710957 1324.6546181738377 1534.2811724245548 119.65871278941631
leaf_count=4385 2471 3297 13306 9886 2615 1520 1853 524 1555 3318 22076 4105 2663 8194 72486 6655 2624 20603 2190 1137 48533 1142 3231 1419 702 1487 875 6377 6956 573
internal_value=-0.000333116 0.0102663 -0.0318518 -0.0132792 0.0253616 0.0223873 0.00221575 -0.030418 0.0116718 -0.0314954 0.0417514 0.00156282 0.00995703 0.0524368 -0.0337037 0.0372973 0.00675987 0.0443718 -0.010515 0.00972439 -0.05277 0.0540033 -0.0068632 -0.0153349 0.0358882 0.0200687 0.0217541 0.0333807 0.0295713 -0.00370697
internal_weight=43232 32352.3 10879.7 18510 5687.38 3028.1 3066.19 12822.6 2666.03 12707.1 13842.3 2274.09 2018.48 2621.19 12122.3 2374.28 964.396 12877.9 1902.39 913.337 7851.61 6030.98 1382.51 586.182 6846.92 2103.85 867.133 1555.61 1951.32 417.038
internal_count=258758 181803 76955 116792 28388 15116 16022 88404 13407 87880 65011 11554 9999 12366 84562 10731 5095 59916 12076 4076 61839 28122 7336 2556 31794 9718 4172 7519 9016 2060
is_linear=0
shrinkage=0.05


Tree=19
num_leaves=31
num_cat=0
split_feature=12 12 5 5 5 10 10 8 5 5 8 3 10 10 1 12 5 5 1 0 8 0 9 0 10 10 10 10 9 5
split_gain=5360.5 8762.5 6409.59 5501.7 886.865 865.66 849.332 787.833 629.128 2532.26 463.662 444.878 435.644 565.258 422.31 419.615 1799.4 1004.9 407.724 396.597 357.958 337.365 337.267 336.805 478.668 384.697 367.918 422.44 309.094 301.911
threshold=-0.23285248701017633 -0.22880605558706832 1.4083721184106015 1.4083721184106015 -0.60659259954554179 1.528775236739756 1.6278113333119084 1.3749708791652633 -0.22410417135585778 -0.16808236265337373 -0.57486346065374627 1.0424078941354937 1.6399767619173344 1.7006713658702035 0.64667359743884922 -1.0791497900521834 0.019394866504950984 -0.030937199699679809 0.48590761328754906 0.467853789654818 1.8863838133181885 1.0000000180025095e-35 1.0754666136696793 0.89949733304675716 1.7056752044287149 1.7398616361861736 1.7496819182673697 1.7792540437415407 1.2594428006005762 0.22689320445553907
decision_type=2 2 2 2 2 2 2 2 2 2 2 2 2 2 2 2 2 2 2 2 2 2 2 2 2 2 2 2 2 2
left_child=3 10 4 15 7 21 -7 28 -6 -10 18 14 -8 -14 -5 16 17 -1 -2 -12 29 -4 -21 24 -15 -26 -27 -28 -3 -11
right_child=1 2 5 11 8 6 12 -9 9 20 19 -13 13 23 -16 -17 -18 -19 -20 22 -22 -23 -24 -25 25 26 27 -29 -30 -31
leaf_value=-0.058766497502698238 -0.035964319044690031 -0.0013145027648695851 0.029890057728634491 0.050120573486108211 -0.058124716731366592 -0.067308983093002137 0.073006186638149118 -0.049311974289674751 0.072647099032355375 -0.033654142031941905 0.034371559065331896 0.052084776817992763 -0.073096915050317499 0.083151347691317989 -0.017480579418633714 -0.058103758192098259 -0.058081954326626752 0.088142258505388232 0.031651432289910929 0.059108152738468193 0.082132769749950624 0.069952921751473843 0.031950735211761276 0.061763980699990562 -0.097500979350039874 0.086350257739900405 -0.096392094633623332 0.008969712390580642 0.057319048268792097 -0.058199624703547739
leaf_weight=164.84773363173008 355.08453261852264 2426.7246650159359 769.08430618047714 375.27501153945923 2918.5165178701282 276.81483712792397 397.40631103515625 929.86814686655998 548.38613347709179 4422.8156295344234 6792.9047829955816 1463.1921556591988 164.80154018104076 189.97775214910507 601.03991398215294 5831.5712870359421 1730.0070197284222 396.10410207509995 599.14457800984383 4401.8983109295368 59.979686081409454 1658.9998154044151 1544.3212434649467 434.63631367683411 98.001396372914314 125.21098671853542 110.84735164046288 671.14151208102703 247.7136307656765 1747.8798021972179
leaf_count=1299 2187 12204 3359 1692 24371 1679 1878 6443 2568 33133 31794 6601 848 822 2489 48796 14464 1614 2908 20603 256 7738 7519 1809 405 532 457 2795 1044 14451
internal_value=-0.00033107 0.00989349 -0.0128405 -0.0312042 -0.0308445 0.0360651 0.015217 -0.00966756 -0.0387153 -0.0303592 0.0401075 0.0346433 0.0256386 0.0151493 0.00850389 -0.0509807 -0.0328492 0.04497 0.00649049 0.0426256 -0.0394252 0.0572632 0.052055 0.0240725 0.0103657 -0.00339046 0.00677595 -0.00596538 0.00411629 -0.0406068
internal_weight=42454.2 31892.2 18198.8 10562 13301.9 4896.92 2468.84 3604.31 9697.58 6779.06 13693.4 2439.51 2192.02 1794.62 976.315 8122.53 2290.96 560.952 954.229 12739.1 6230.68 2428.08 5946.22 1629.82 1195.18 1005.2 907.2 781.989 2674.44 6170.7
internal_count=258758 181803 116792 76955 94470 22322 11225 19691 74779 50408 65011 10782 9546 7668 4181 66173 17377 2913 5095 59916 47840 11097 28122 6820 5011 4189 3784 3252 13248 47584
is_linear=0
shrinkage=0.05


Tree=20
num_leaves=31
num_cat=0
split_feature=12 12 8 8 10 4 10 4 10 4 9 4 4 0 1 3 1 12 0 9 8 8 3 8 10 4 10 4 4 8
split_gain=5024.81 7991.28 4328 4139.62 1209.41 874.647 643.081 560.621 546.51 487.848 459.152 458.103 452.04 417.537 399.997 380.21 354.417 350.611 339.534 423.273 321.67 296.867 292.723 275.427 247.772 246.578 244.273 227.636 220.409 206.636
threshold=-0.23285248701017633 -0.22880605558706832 -1.0058707782594902 -1.0058707782594902 1.528775236739756 -1.5229902738188548 1.6278113333119084 3.7533305778057513 1.6399767619173344 -1.9525660452375486 1.3044450495905482 0.065051451441212077 -0.83115653285558033 1.0000000180025095e-35 0.79359834924486916 1.0424078941354937 0.64667359743884922 -1.0791497900521834 0.467853789654818 1.0754666136696793 0.18393653335247781 1.1933340654900062 0.98083550393665742 -1.8050802988912411 1.0000000180025095e-35 -1.7663246345443882 1.7006713658702035 -0.80118871653492885 0.49904638900832371 1.4037458813778139
decision_type=2 2 2 2 2 2 2 2 2 2 2 2 2 2 2 2 2 2 2 2 2 2 2 2 2 2 2 2 2 2
left_child=2 9 5 4 13 -1 -6 10 -8 -2 12 23 20 24 18 16 -7 -4 29 -20 -5 -22 -18 25 -3 -10 -13 -25 -21 -11
right_child=1 3 17 7 6 15 8 -9 11 14 -12 26 -14 -15 -16 -17 22 -19 19 28 21 -23 -24 27 -26 -27 -28 -29 -30 -31
leaf_value=-0.031872318756591349 -0.070272219987898898 0.0064302218969203226 -0.031701753186749823 -0.015983860879759029 -0.05903119942220935 0.052242964664106453 0.067140854963858895 0.083059441129587408 -0.066983093917989997 0.025114909569363797 0.022006319446439982 -0.070426978443672655 -0.035851809426806783 0.063566373321329611 0.061984314943929891 0.051293397164084265 -0.054348475447138216 -0.05764757371324819 0.053732634227291659 0.0073524358537043035 0.10136603468166971 -0.029751675426660264 0.017573517125718977 -0.04152333248997709 0.071368661283714441 0.057762419402881487 0.043935045821679154 0.0010833460254135825 0.053022697273364887 0.052180893567978032
leaf_weight=622.48640147596598 102.36294757574797 670.72279148548841 1700.3141147866845 1712.847980119288 377.98364564031363 312.95022387057543 368.8930689394474 111.21269407868385 49.065932020545006 5739.7712228000164 414.48028649389744 50.416937902569771 9836.768490165472 1666.957429766655 1697.3667867034674 1393.0484843552113 251.43869177252054 5558.9939487278461 3911.7307225465775 909.14935277402401 117.68793976306915 68.178569331765175 323.48176126182079 729.19598593562841 188.07777562737465 205.62993982434273 632.16250436007977 549.90224292874336 372.39066472649574 803.94702832400799
leaf_count=4361 634 3313 13226 11480 2638 1496 1837 521 209 27594 2331 274 72959 8158 8333 6561 1128 48523 18596 4573 497 315 1400 5095 879 862 2680 2386 1745 3450
internal_value=-0.000389473 0.00953239 -0.0309349 -0.0125351 0.0235534 0.0206595 0.00188527 -0.0286909 0.0107917 0.0384686 -0.0297138 0.00141292 -0.0315405 0.0489747 0.0392971 0.034996 0.00942575 -0.0515704 0.0360162 0.0455623 -0.00920454 0.0532701 -0.0138812 -0.0137514 0.0206518 0.0337308 0.035488 -0.0232061 0.0206233 0.0284402
internal_weight=41449.6 31286.9 10162.7 17750.2 5489.01 2903.41 2963.25 12261.2 2585.27 13536.7 12150 2216.37 11735.5 2525.76 13434.4 2280.92 887.871 7259.31 11737 5193.27 1898.71 185.867 574.92 1533.79 858.801 254.696 682.579 1279.1 1281.54 6543.72
internal_count=258054 181359 76695 116434 28331 14946 15981 88103 13343 64925 87582 11506 85251 12350 64291 10585 4024 61749 55958 24914 12292 812 2528 8552 4192 1071 2954 7481 6318 31044
is_linear=0
shrinkage=0.05


Tree=21
num_leaves=31
num_cat=0
split_feature=12 12 5 5 5 10 10 4 5 5 5 5 5 1 5 5 5 5 5 5 5 5 4 5 12 5 5 10 10 4
split_gain=4664.54 7297.6 5426.92 4821.32 831.93 746.459 752.735 679.737 639.887 2350.62 594.95 515.016 473.988 1801.59 1040.17 1002.81 481.723 1976.65 466.498 881.094 449.313 1090.47 435.936 409.701 400.735 1713.61 900.825 389.964 502.182 356.115
threshold=-0.23285248701017633 -0.22880605558706832 1.4083721184106015 1.4083721184106015 -0.60659259954554179 1.528775236739756 1.6278113333119084 0.63337464907065766 -0.22410417135585778 -0.16808236265337373 -0.94401635337949241 -0.87880536591210834 -0.33645260021371254 0.53658530091422996 -0.31067793434855834 -0.054774243884887545 -0.43924377184317526 -0.4656987691032573 -0.67399897942448272 -0.70948141993565295 -0.068588321316248688 -0.054774243884887545 -1.6584348566595375 -0.61621375964670533 -1.0791497900521834 0.019394866504950984 -0.030937199699679809 1.6399767619173344 1.7006713658702035 -1.1231478800766175
decision_type=2 2 2 2 2 2 2 2 2 2 2 2 2 2 2 2 2 2 2 2 2 2 2 2 2 2 2 2 2 2
left_child=3 12 4 24 7 -4 -7 10 -6 -10 29 -12 16 15 -15 -14 17 18 19 -2 -16 -22 -5 -9 25 26 -1 -8 -29 -3
right_child=1 2 5 22 8 6 27 23 9 -11 11 -13 13 14 20 -17 -18 -19 -20 -21 21 -23 -24 -25 -26 -27 -28 28 -30 -31
leaf_value=-0.058007558489639621 0.040855340944872566 0.054746238459662068 0.053691917302996522 -0.073517956324838443 -0.05742550096094691 -0.065803251059946499 0.070187625132609066 -0.05200442176914917 0.071657425501417682 -0.037565349399148629 0.084829212850909788 0.0097406140056388538 -0.037375523047707131 -0.066594147401051115 0.061797779846610501 0.074390845309507916 0.069949283971703108 -0.066144117445546352 0.061257218928361702 -0.04821175569768929 -0.11113926181266597 0.068853746402073659 0.036477829019994155 0.20417507791818418 -0.057220332327434245 -0.057429320752293025 0.086040454237851005 -0.070984254852954384 0.022339402532715991 -0.038894129365883545
leaf_weight=150.85362076759338 4003.0119417905807 115.4864410161972 2332.5033037811518 93.812902539968491 2715.8354823216796 263.13141211867332 374.07766184210777 839.23301938176155 537.10833790898323 5944.6865857988596 271.60007485747337 1434.2170771211386 1302.4564769938588 190.65835332870483 2440.5788716226816 237.25239828228951 1457.3585515916348 425.34537179768085 2678.7771956175566 298.36530382931232 133.88252918422222 226.51954677700996 2261.4608761668205 15.902703553438185 5355.5824519395828 1613.9010960757732 386.8835521042347 158.27784210443497 1615.08728761971 840.30240918695927
leaf_count=1268 17324 498 11094 462 24237 1704 1869 6178 2561 47667 1139 6822 7814 1025 12175 1099 7195 2359 13017 1224 550 1143 10218 86 48785 14372 1590 852 6822 4905
internal_value=-0.000384064 0.00918471 -0.0121157 -0.0303169 -0.0291428 0.0335272 0.0140156 -0.00845882 -0.0370514 -0.0285147 0.00400112 0.0216962 0.0369468 0.0237925 0.0464103 -0.0201535 0.0436723 0.0385011 0.0448778 0.0346772 0.0541023 0.00198976 0.0320966 -0.0472403 -0.0498982 -0.0316727 0.0456301 0.023796 0.01401 -0.0275797
internal_weight=40714.2 30851.7 17457.4 9862.49 12714.4 4743.08 2410.57 3516.74 9197.63 6481.79 2661.61 1705.82 13394.2 4531.35 2991.64 1539.71 8862.86 7405.5 6980.15 4301.38 2800.98 360.402 2355.27 855.136 7507.22 2151.64 537.737 2147.44 1773.37 955.789
internal_count=258054 181359 116434 76695 94093 22341 11247 19628 74465 50228 13364 7961 64925 23806 14893 8913 41119 33924 31565 18548 13868 1693 10680 6264 66015 17230 2858 9543 7674 5403
is_linear=0
shrinkage=0.05


Tree=22
num_leaves=31
num_cat=0
split_feature=12 12 5 5 5 10 10 8 5 5 5 5 1 5 5 5 5 5 5 5 5 4 12 5 5 5 5 5 5 10
split_gain=4352.78 6737.26 5009.77 4541.09 792.009 694.569 698.171 666.696 632.039 2178.41 431.526 1671.86 1171.57 752.717 868.642 471.705 993.357 465.579 1824.77 459.051 709.947 400.522 384.412 1612.4 829.022 370.786 2440.71 570.223 2681.65 370.232
threshold=-0.23285248701017633 -0.22880605558706832 1.4083721184106015 1.4083721184106015 -0.60659259954554179 1.528775236739756 1.6278113333119084 1.3749708791652633 -0.22410417135585778 -0.16808236265337373 -0.33645260021371254 -0.25265915908003883 0.53658530091422996 -0.054774243884887545 -0.2126783763056295 -0.068588321316248688 -0.054774243884887545 -0.43924377184317526 -0.4656987691032573 -0.57726826192588065 -0.59463554612586911 -1.6584348566595375 -1.0791497900521834 0.019394866504950984 -0.030937199699679809 0.22689320445553907 0.16083899910446692 1.0000000180025095e-35 -0.030937199699679809 1.6399767619173344
decision_type=2 2 2 2 2 2 2 2 2 2 2 2 2 2 2 2 2 2 2 2 2 2 2 2 2 2 2 2 2 2
left_child=3 10 4 22 7 -4 -7 -3 -6 -10 17 -12 13 14 -13 -14 -17 18 19 20 -2 -5 23 24 -1 26 27 28 -11 -8
right_child=1 2 5 21 8 6 29 -9 9 25 11 12 15 -15 -16 16 -18 -19 -20 -21 -22 -23 -24 -25 -26 -27 -28 -29 -30 -31
leaf_value=-0.057556294561548572 0.038767838437262211 0.0042654063274372008 0.052068982930182639 -0.071971240468991921 -0.057011747698292065 -0.06495904028804915 0.068845766640724324 -0.046751647526444111 0.070119120813695146 -0.057858176980306278 -0.042724599878713201 0.179808674404594 0.064084603189399833 0.072678919644163689 -0.042215515178223598 -0.1048807500945485 0.067603037790810824 0.068608355190959786 -0.065123209869347318 0.068100404940909534 -0.11578721993152007 0.034973924677598772 -0.056819284559723987 -0.057015101713255203 0.083070552262431513 -0.057209564613725589 0.10095049929849431 -0.057512154849740475 0.077743958661932358 0.013372798314897242
leaf_weight=144.59292054176331 5317.1277381181717 2632.8442206382751 2286.1326097846031 91.106210112571716 2601.6556807756424 253.46848168224096 362.59156480431557 846.19678848981857 521.83444617688656 1276.8150279223919 790.82673525810242 46.719666823744774 2231.5723374933004 230.86073799431324 771.95862779766321 134.75163052976131 219.35643798112869 1412.6828167289495 410.78185253590345 1473.30547131598 75.354852095246315 2241.2916114777327 5129.4336042180657 1546.0605971515179 380.830700725317 1578.4406544044614 333.78484614193439 2112.0315373241901 510.31439116597176 1764.4641826599836
leaf_count=1268 23688 13252 11094 462 24237 1704 1869 6376 2561 11098 4713 234 11507 1099 4560 550 1143 7195 2359 7569 308 10218 48785 14372 1590 14354 1353 18634 2228 7674
internal_value=-0.000383725 0.0089155 -0.01178 -0.0298381 -0.0283826 0.0323851 0.0134818 -0.00814332 -0.0362633 -0.02774 0.035868 0.0231603 0.0374933 -0.0070596 -0.0295452 0.0555775 0.00196638 0.042341 0.0372414 0.0433659 0.0366081 0.0307965 -0.0494779 -0.0312989 0.044371 -0.0365273 -0.0288149 -0.0399234 -0.019137 0.0228291
internal_weight=39729.2 30195.9 17080.6 9533.32 12413.9 4666.66 2380.52 3479.04 8934.88 6333.22 13115.3 4426.05 3635.22 1049.54 818.678 2585.68 354.108 8689.25 7276.57 6865.79 5392.48 2332.4 7200.92 2071.48 525.424 5811.39 4232.95 3899.16 1787.13 2127.06
internal_count=258054 181359 116434 76695 94093 22341 11247 19628 74465 50228 64925 23806 19093 5893 4794 13200 1693 41119 33924 31565 23996 10680 66015 17230 2858 47667 33313 31960 13326 9543
is_linear=0
shrinkage=0.05


Tree=23
num_leaves=31
num_cat=0
split_feature=12 12 5 5 5 10 10 8 5 5 4 1 12 5 5 1 5 5 5 5 5 5 5 5 5 5 5 5 5 5
split_gain=4064.22 6226.57 4644.15 4280.61 778.063 649.141 647.16 623.622 603.426 2040.93 409.19 389.551 368.464 1518.41 765.152 365.17 798.738 1244.09 839.393 1605.16 494.021 1419.87 422.482 1515.99 407.854 810.463 354.638 2251.75 542.794 2509.16
threshold=-0.23285248701017633 -0.22880605558706832 1.4083721184106015 1.4083721184106015 -0.60659259954554179 1.528775236739756 1.6278113333119084 1.3749708791652633 -0.22410417135585778 -0.16808236265337373 -1.9525660452375486 1.1172730008981395 -1.0791497900521834 0.019394866504950984 -0.030937199699679809 0.79359834924486916 -0.33645260021371254 -0.15365451022594531 -0.2126783763056295 -0.25265915908003883 -0.068588321316248688 -0.054774243884887545 -0.43924377184317526 -0.4656987691032573 -0.67399897942448272 -0.68947571669541208 0.22689320445553907 0.16083899910446692 1.0000000180025095e-35 -0.030937199699679809
decision_type=2 2 2 2 2 2 2 2 2 2 2 2 2 2 2 2 2 2 2 2 2 2 2 2 2 2 2 2 2 2
left_child=3 10 4 12 7 -4 -7 -3 -6 -10 -2 -5 13 14 -1 16 22 18 19 -18 -19 -22 23 24 25 -12 27 28 29 -11
right_child=1 2 5 11 8 6 -8 -9 9 26 15 -13 -14 -15 -16 -17 17 20 -20 -21 21 -23 -24 -25 -26 -27 -28 -29 -30 -31
leaf_value=-0.05713368002807008 -0.068713867099179857 0.0040462676249333552 0.05052035057808877 0.014455703469613246 -0.056623760659937572 -0.064168970452429946 0.021831522746777236 -0.045886120345444481 0.068711576765678614 -0.05741947464431324 0.036166539933185048 0.057484837900380351 -0.0564430748364005 -0.056626707383722052 0.080435558143850228 0.058241769876807736 -0.041724358061994288 0.071687477581581505 -0.067922303841440698 0.076158946017963358 -0.090965402587786209 0.069259924177788326 0.067535859970179787 -0.064492529142647512 0.058058476898459936 -0.084621198339589199 -0.056808928657199199 0.096160701885570229 -0.057092559656874924 0.075672144959572335
leaf_weight=138.53262704610825 94.693233385682106 2636.5648860484362 2239.5931878089905 1499.0886815488338 2491.2987337782979 243.99979175627232 2113.9670020192862 819.7260834351182 506.2921601831913 1223.5881435424089 3922.0527995526791 810.30985368788242 4910.9657161459327 1480.4896860867739 373.81736120581627 1563.5537558794022 705.09927053749561 806.56699983775616 553.76585000753403 489.06500990688801 215.56591880321503 385.60886640846729 1249.8912892490625 356.27579540014267 2349.1563984751701 143.97402527928352 1511.7795621156693 332.90618485212326 2023.4172290712595 498.37388703227043
leaf_count=1268 634 13252 11094 6628 24237 1704 9543 6376 2561 11098 17306 4052 48785 14372 1590 8333 4336 4096 3608 2578 907 1963 6547 2070 11950 597 14354 1353 18634 2228
internal_value=-0.000386808 0.00867311 -0.0115087 -0.0293732 -0.0278282 0.0312424 0.0129323 -0.00779616 -0.0358905 -0.0274178 0.0348398 0.0295535 -0.0490848 -0.0309518 0.0432387 0.0356094 0.0324434 0.0111332 -0.0170408 0.00655426 0.0461157 0.0118072 0.040827 0.035897 0.0414723 0.0318896 -0.0361243 -0.0284567 -0.0395332 -0.0188998
internal_weight=38690 29476.8 16641.5 9213.2 12043.9 4597.56 2357.97 3456.29 8587.66 6096.36 12835.3 2309.4 6903.81 1992.84 512.35 12740.6 11177 3155.67 1747.93 1194.16 1407.74 601.175 8021.35 6771.46 6415.18 4066.03 5590.07 4078.29 3745.38 1721.96
internal_count=258054 181359 116434 76695 94093 22341 11247 19628 74465 50228 64925 10680 66015 17230 2858 64291 55958 17488 10522 6914 6966 2870 38470 31923 29853 17903 47667 33313 31960 13326
is_linear=0
shrinkage=0.05


Tree=24
num_leaves=31
num_cat=0
split_feature=12 12 5 5 5 10 4 10 5 5 5 5 4 1 10 10 0 12 5 5 5 5 5 5 5 0 4 9 4 8
split_gain=3795.64 5765.13 4303.69 4039.05 764.761 609.357 601.865 599.453 575.883 1913.97 510.225 470.819 380.145 370.253 358.679 459.294 354.322 352.931 1430.96 708.001 348.505 339 2083.93 516.59 2350.68 338.704 320.939 318.455 310.72 300.763
threshold=-0.23285248701017633 -0.22880605558706832 1.4083721184106015 1.4083721184106015 -0.60659259954554179 1.528775236739756 0.63337464907065766 1.6278113333119084 -0.22410417135585778 -0.16808236265337373 -0.94401635337949241 -0.87880536591210834 -1.9525660452375486 1.1172730008981395 1.6399767619173344 1.7006713658702035 0.467853789654818 -1.0791497900521834 0.019394866504950984 -0.030937199699679809 -0.61621375964670533 0.22689320445553907 0.16083899910446692 1.0000000180025095e-35 -0.030937199699679809 1.0000000180025095e-35 -1.1231478800766175 1.0754666136696793 3.7533305778057513 1.4037458813778139
decision_type=2 2 2 2 2 2 2 2 2 2 2 2 2 2 2 2 2 2 2 2 2 2 2 2 2 2 2 2 2 2
left_child=3 12 4 17 6 25 10 -7 -6 -10 26 29 -2 -5 -9 -16 -14 18 19 -1 28 22 23 24 -11 -4 -3 -18 -8 -12
right_child=1 2 5 13 8 7 20 14 9 21 11 -13 16 -15 15 -17 27 -19 -20 -21 -22 -23 -24 -25 -26 -27 -28 -29 -30 -31
leaf_value=-0.056737547502762026 -0.06768805234267089 0.051660883052336917 0.021247409094024269 0.01376029141924676 -0.056259645927746016 -0.063428282319910143 -0.054382129963442549 0.067242457499380112 0.067419631629099822 -0.057008203787462942 0.098963632577642735 0.0087931446578984641 0.02684871431440207 0.056079625047146135 -0.070332228115977849 0.019600504339394729 0.050895773793566891 -0.05608988832813764 -0.056262229789469792 0.078084350231265198 0.17466395253343259 -0.056433118335423998 0.092015176151089922 -0.056699202329146797 0.073804099329316461 0.06293101670882463 -0.037107868661711889 0.024295541302099124 0.20698678006993473 -0.068690209207994818
leaf_weight=132.67302459478378 91.405332021415234 116.51937939226627 730.97109125554562 1496.1822424530983 2384.7453872412443 234.7412748336792 767.67589572817087 347.30210095643997 490.59263110160828 1172.0968817397952 242.41051980853081 1441.1748965084553 6706.8402591049671 789.61180175840855 155.7512449324131 1604.445778593421 4202.0092829763889 4700.1248953342438 1417.1772510930896 366.01656690239906 17.570911735296249 1447.3829600065947 330.56411208212376 1937.7485455870628 485.75818756222725 1462.1561793088913 807.23729355633259 1536.6315159723163 11.542034998536108 30.069038733839989
leaf_count=1268 634 498 3393 6628 24237 1704 6115 1869 2561 11098 987 6822 34155 4052 852 6822 21932 48785 14372 1590 86 14354 1353 18634 2228 7701 4905 8204 63 152
internal_value=-0.00038969 0.00844249 -0.0112411 -0.0289202 -0.0272889 0.0300977 -0.00746268 0.0123633 -0.0355429 -0.0271182 0.0040424 0.0201889 0.0339064 0.0283792 0.0208053 0.0116428 0.0346526 -0.0487169 -0.0306289 0.0422159 -0.0455451 -0.0357493 -0.0281241 -0.0391692 -0.0186797 0.0490378 -0.0259109 0.043773 -0.0505106 0.0804625
internal_weight=37657.1 28755.3 16218.5 8901.79 11683.1 4535.37 3434.2 2342.24 8248.89 5864.14 2637.41 1713.65 12536.9 2285.79 2107.5 1760.2 12445.5 6615.99 1915.87 498.69 796.789 5373.55 3926.17 3595.6 1657.86 2193.13 923.757 5738.64 779.218 272.48
internal_count=258054 181359 116434 76695 94093 22341 19628 11247 74465 50228 13364 7961 64925 10680 9543 7674 64291 66015 17230 2858 6264 47667 33313 31960 13326 11094 5403 30136 6178 1139
is_linear=0
shrinkage=0.05


Tree=25
num_leaves=31
num_cat=0
split_feature=12 12 5 5 5 4 5 5 10 10 5 5 1 5 5 4 0 10 10 12 5 5 5 5 5 5 3 1 5 5
split_gain=3567.64 5225.79 4030.58 3870.82 785.871 573.482 553.384 1797.92 546.111 539.897 456.281 407.484 379.361 1422.97 720.782 377.412 340.584 338.363 441.119 334.315 1338.55 670.747 334.095 1938.32 507.879 2228.57 312.802 445.373 301.196 299.177
threshold=-0.23285248701017633 -0.22880605558706832 1.4083721184106015 1.4083721184106015 -0.60659259954554179 0.63337464907065766 -0.22410417135585778 -0.16808236265337373 1.528775236739756 1.6278113333119084 -0.94401635337949241 -0.87880536591210834 0.48590761328754906 -0.33645260021371254 -0.054774243884887545 -1.6584348566595375 1.0000000180025095e-35 1.6399767619173344 1.7006713658702035 -1.0791497900521834 0.019394866504950984 -0.030937199699679809 0.22689320445553907 0.16083899910446692 1.0000000180025095e-35 -0.030937199699679809 1.0424078941354937 0.64667359743884922 -0.61621375964670533 -1.3006534206444058
decision_type=2 2 2 2 2 2 2 2 2 2 2 2 2 2 2 2 2 2 2 2 2 2 2 2 2 2 2 2 2 2
left_child=3 12 4 19 5 10 -6 -8 16 -10 29 -12 13 -2 -15 -5 -4 -11 -19 20 21 -1 23 24 25 -9 27 -17 -7 -3
right_child=1 2 8 15 6 28 7 22 9 17 11 -13 -14 14 -16 26 -18 18 -20 -21 -22 -23 -24 -25 -26 -27 -28 -29 -30 -31
leaf_value=-0.056364609587051577 0.036269542804131867 0.02144240787837947 0.019555399454455304 -0.071094747428693469 -0.055917187382145794 -0.048991467688924505 0.066324795516344209 -0.056615051794392482 -0.062343466579162538 0.066169461501390026 0.075885791741952036 0.0092682177473695764 0.040124921889267855 -0.042195154418299505 0.069536545318597806 0.05504073438888954 0.061932540268374608 -0.069036386900405214 0.019458267405209329 -0.055758546873200691 -0.055921988434347883 0.075963440801922119 -0.056080560601599244 0.088331412359047262 -0.056331675750473501 0.072134800410737041 0.047363436770677197 -0.018737802898132878 0.15470562817230549 -0.042695557798434508
leaf_weight=130.79854217171669 4127.2278505861759 254.92974522709846 710.89533221721649 92.855507105588913 2286.5156455859542 758.5924308821559 475.08652456104755 1118.2525390908122 216.88027810305357 340.15965442359447 272.61989119648933 1452.899009346962 7121.2898504137993 1004.4138382226229 168.56563918292522 325.79880408942699 1423.6192523688078 154.36336056888103 1604.9294882118702 4508.4459383189678 1367.2617467865348 357.50401598215103 1408.709928907454 329.42706662416458 1863.2136516198516 480.53213310241699 1303.0867548435926 549.64514108002186 18.592420056462288 633.97515538334846
leaf_count=1306 19979 1409 3322 481 24288 6227 2563 11066 1651 1891 1144 6868 37524 6665 858 1550 7729 874 6845 48909 14487 1590 14597 1363 18714 2264 6475 2223 85 3893
internal_value=-0.000284704 0.00831919 -0.010754 -0.0284074 -0.0265639 -0.00640878 -0.0351497 -0.0267826 0.0295741 0.0127614 0.00480111 0.0197933 0.0325866 0.0224581 -0.0261385 0.0276264 0.0478189 0.0205199 0.0116936 -0.0484065 -0.0305434 0.0405176 -0.0352889 -0.0275638 -0.0385918 -0.0179179 0.0318342 0.00871908 -0.0441185 -0.0243014
internal_weight=36861.1 28225.7 15804.2 8635.4 11353.3 3391.61 7961.74 5675.22 4450.85 2316.33 2614.42 1725.52 12421.5 5300.21 1172.98 2271.39 2134.51 2099.45 1759.29 6364.01 1855.56 488.303 5200.14 3791.43 3462 1598.78 2178.53 875.444 777.185 888.905
internal_count=258840 181819 116793 77021 94481 19626 74855 50567 22312 11261 13314 8012 65026 27502 7523 10729 11051 9610 7719 66292 17383 2896 48004 33407 32044 13330 10248 3773 6312 5302
is_linear=0
shrinkage=0.05


Tree=26
num_leaves=31
num_cat=0
split_feature=12 12 5 5 5 5 5 8 9 1 5 5 5 5 5 5 5 5 5 5 3 1 5 5 12 5 5 5 5 5
split_gain=3334.02 4798.44 3745.14 3656.86 767.392 527.769 1688.97 520.537 516.785 371.715 713.5 1172.2 737.64 1523.45 502.45 1309.72 463.535 1416.69 468.208 762.932 344.365 369.544 343.249 351.917 319.861 1263.24 623.37 319.036 1802.65 483.173
threshold=-0.23285248701017633 -0.22880605558706832 1.4083721184106015 1.4083721184106015 -0.60659259954554179 -0.22410417135585778 -0.16808236265337373 1.3749708791652633 1.0000000180025095e-35 0.79359834924486916 -0.33645260021371254 -0.15365451022594531 -0.2126783763056295 -0.25265915908003883 -0.068588321316248688 -0.054774243884887545 -0.43924377184317526 -0.4656987691032573 -0.67399897942448272 -0.68947571669541208 1.0424078941354937 0.64667359743884922 -1.2721605235008815 -1.2411464242792418 -1.0791497900521834 0.019394866504950984 -0.030937199699679809 0.22689320445553907 0.16083899910446692 1.0000000180025095e-35
decision_type=2 2 2 2 2 2 2 2 2 2 2 2 2 2 2 2 2 2 2 2 2 2 2 2 2 2 2 2 2 2
left_child=3 9 4 24 7 -6 -7 -3 -4 10 16 12 13 -12 -13 -16 17 18 19 22 21 -5 -2 -24 25 26 -1 28 29 -8
right_child=1 2 8 20 5 6 27 -9 -10 -11 11 14 -14 -15 15 -17 -18 -19 -20 -21 -22 -23 23 -25 -26 -27 -28 -29 -30 -31
leaf_value=-0.056015808347103582 0.072922312674057507 0.0044217729159630416 0.014856550387239787 0.044614911193805826 -0.05559582774059936 0.065229761474935671 -0.017732407169944651 -0.042773166461032908 0.050091282776028902 0.054788971921073328 -0.043628202494551252 0.069320954827177136 -0.067325027339653301 0.074218717599044748 -0.088321340551043764 0.066501205024884297 0.065262835035895916 -0.064255918146985599 0.055245511355533794 -0.084110466692609187 0.043243221648529374 -0.020735213263082832 -0.10848854141020059 0.027437049864905996 -0.055446578738329456 -0.055600195864924144 0.074065084182172142 -0.055749123645358833 0.085152366529662307 -0.055985056929521576
leaf_weight=125.17453150451183 430.0312192440033 2604.1311676353216 2664.8210476562381 343.12661027908325 2187.2546559199691 459.30902314186096 1537.1857446432114 753.24810596555471 1707.4422109425068 1495.6588519066572 693.46238603442907 761.71386985480785 553.01276590675116 453.63880990445614 220.62915687263012 358.66144721210003 1170.1112069934607 367.66185370832682 2204.3589572608471 150.007822483778 1306.0394677072763 585.40324087440968 48.30971722304821 3329.456684589386 4312.0848551616073 1307.9162141382694 348.56024664640427 1347.7710655480623 324.75572344660759 1783.0387212708592
leaf_count=1306 1998 13234 12770 1677 24288 2563 13330 6392 9542 8506 4343 4137 3816 2558 951 1967 6585 2193 11948 624 6614 2438 222 15178 48909 14487 1590 14597 1363 18714
internal_value=-0.000291732 0.00807355 -0.0105272 -0.02802 -0.0260906 -0.0348469 -0.0265229 -0.00616669 0.0286163 0.0314356 0.0281837 0.00767818 -0.0198914 0.00297617 0.0426306 0.00753535 0.0362824 0.0310893 0.036778 0.0264922 0.026693 0.00341411 0.0308494 0.025493 -0.0480832 -0.0302618 0.0396939 -0.0349637 -0.027278 -0.038275
internal_weight=35934 27605.7 15369 8328.31 10996.7 7639.31 5452.06 3357.38 4372.26 12236.7 10741.1 3041.12 1700.11 1147.1 1341 579.291 7699.94 6529.83 6162.16 3957.81 2234.57 928.53 3807.8 3377.77 6093.74 1781.65 473.735 4992.75 3644.98 3320.22
internal_count=258840 181819 116793 77021 94481 74855 50567 19626 22312 65026 56520 17772 10717 6901 7055 2918 38748 32163 29970 18022 10729 4115 17398 15400 66292 17383 2896 48004 33407 32044
is_linear=0
shrinkage=0.05


Tree=27
num_leaves=31
num_cat=0
split_feature=12 12 5 5 5 4 10 5 5 10 5 5 10 4 0 10 0 5 5 5 5 12 5 5 4 5 5 5 5 5
split_gain=3116.24 4444.98 3457.65 3456.89 743.008 521.42 517.03 513.273 1577.72 496.32 401.931 372.105 359.627 347.758 333.539 326.282 415.44 313.944 1665.81 482.152 2102.44 305.881 1192.79 580.372 300.13 295.434 422.472 1016.77 382.179 329.54
threshold=-0.23285248701017633 -0.22880605558706832 1.4083721184106015 1.4083721184106015 -0.60659259954554179 0.63337464907065766 1.528775236739756 -0.22410417135585778 -0.16808236265337373 1.6278113333119084 -0.94401635337949241 -0.87880536591210834 1.0000000180025095e-35 -1.6584348566595375 1.0000000180025095e-35 1.6399767619173344 0.89949733304675716 0.22689320445553907 0.16083899910446692 1.0000000180025095e-35 -0.030937199699679809 -1.0791497900521834 0.019394866504950984 -0.030937199699679809 3.7533305778057513 -1.2721605235008815 -1.0436830353490483 -1.0903811092513489 -1.2411464242792418 -0.97558497692000012
decision_type=2 2 2 2 2 2 2 2 2 2 2 2 2 2 2 2 2 2 2 2 2 2 2 2 2 2 2 2 2 2
left_child=3 12 4 21 5 10 14 -6 -9 -8 -3 -12 25 -5 -4 -11 -17 18 19 20 -10 22 23 -1 -7 -2 27 28 -27 -28
right_child=1 2 6 13 7 24 9 8 17 15 11 -13 -14 -15 -16 16 -18 -19 -20 -21 -22 -23 -24 -25 -26 26 29 -29 -30 -31
leaf_value=-0.055688104315567588 0.071824694820850216 -0.023106028627937321 0.01765941120217351 -0.070282137468549929 -0.055293602027685421 -0.047318173940337986 -0.062048686965170068 0.064216924293679298 -0.056143933338729184 0.064750210901321617 0.072232924735325527 0.0085521937223411188 0.047351029510355254 0.029835787411109951 0.060198200419193007 -0.0040096080560140549 0.052619995823715397 -0.055437551447833924 0.082335760865648505 -0.05565936382249969 0.070964375470619775 -0.055153103495279077 -0.055297580016899252 0.072347863951641819 0.18998029430220142 -0.10913687371842594 0.073547505845962688 -0.14825869919031734 0.033974968577233221 0.025092204978252732
leaf_weight=119.75263184309006 340.78147159516811 869.03186305612326 699.07548828423023 90.446852907538414 2091.6651347056031 725.42527113854885 210.55080772936344 443.62341311573982 1055.6797454506159 322.31610250473022 272.22811384499073 1458.047954544425 2531.1799403652549 2113.3301648944616 1351.980826407671 1310.6200681626797 430.15764448046684 1289.0624031275511 319.21105708181858 1705.7521459758282 470.23464684188366 4123.0553863346577 1250.7644900903106 339.22828988730907 13.57408770918846 52.936120748519897 366.69133153557777 117.66726887226105 392.87528142333031 8140.6425307914615
leaf_count=1306 1610 5302 3322 481 24288 6242 1651 2563 11066 1891 1144 6868 13873 10248 7729 5875 1844 14597 1363 18714 2264 48909 14487 1590 70 236 1689 527 1820 45271
internal_value=-0.000293187 0.00784726 -0.0102382 -0.0276229 -0.0254708 -0.00589925 0.0274973 -0.0343296 -0.0260304 0.0110771 0.00463718 0.0185712 0.0306203 0.0257268 0.0456994 0.01854 0.00998394 -0.0343023 -0.0266297 -0.0373928 -0.0169735 -0.0477798 -0.029999 0.038942 -0.0429594 0.0261207 0.0244037 -0.0175243 0.0169817 0.0271808
internal_weight=35017.6 26981 15038.2 8036.58 10713.5 3338.31 4324.7 7375.23 5283.56 2273.64 2599.31 1730.28 11942.8 2203.78 2051.06 2063.09 1740.78 4839.94 3550.88 3231.67 1525.91 5832.8 1709.75 458.981 738.999 9411.59 9070.81 563.479 445.811 8507.33
internal_count=258840 181819 116793 77021 94481 19626 22312 74855 50567 11261 13314 8012 65026 10729 11051 9610 7719 48004 33407 32044 13330 66292 17383 2896 6312 51153 49543 2583 2056 46960
is_linear=0
shrinkage=0.05


Tree=28
num_leaves=31
num_cat=0
split_feature=12 12 5 5 5 5 5 1 1 4 1 1 5 1 5 5 5 5 5 5 5 5 5 5 1 1 5 1 10 5
